<?xml version="1.0"?>
<opencv_storage>
<opencv_ml_ann_mlp>
  <format>3</format>
  <layer_sizes>
    19 100 100 36</layer_sizes>
  <activation_function>SIGMOID_SYM</activation_function>
  <f_param1>6.6666666666666663e-01</f_param1>
  <f_param2>1.7159000000000000e+00</f_param2>
  <min_val>-9.4999999999999996e-01</min_val>
  <max_val>9.4999999999999996e-01</max_val>
  <min_val1>-9.7999999999999998e-01</min_val1>
  <max_val1>9.7999999999999998e-01</max_val1>
  <training_params>
    <train_method>BACKPROP</train_method>
    <dw_scale>1.0000000000000000e-03</dw_scale>
    <moment_scale>0.</moment_scale>
    <term_criteria>
      <iterations>300</iterations></term_criteria></training_params>
  <input_scale>
    3.7587887658785761e+00 -1.6314830471944091e+00
    1.0006343754655351e+01 -2.0527879103839717e+00
    9.5603998004045554e+00 -1.5909628257182531e+00
    9.8505564939797878e+00 -1.3421477264719233e+00
    1.2175651242505751e+01 -9.9074184819142819e-01
    2.6420169809857217e+01 -1.3118687180733986e+00
    4.1371498872265285e+01 -1.5729375598164022e+00
    5.5805512658436612e+01 -1.6738884835065522e+00
    6.9634735255518308e+01 -1.7252390802338813e+00
    8.0463017693432249e+01 -1.8158303228113875e+00
    8.6587853463253396e+01 -1.6851458123896279e+00
    1.0579559401568095e+02 -1.8103014324509439e+00
    9.6679910589368617e+01 -1.6007962453633267e+00
    1.2395233596159223e+02 -1.8681990612746986e+00
    1.2180611548861162e+02 -1.6229814401326637e+00
    1.4853983578679569e+02 -1.7343493507592145e+00
    1.6609162504559438e+02 -1.6817724059972718e+00
    1.9581302528106153e+02 -1.7887022342325849e+00
    2.2172814828333014e+02 -1.7790063947045494e+00</input_scale>
  <output_scale>
    5.2631578947368418e-01 4.9999999999999994e-01 5.2631578947368418e-01
    4.9999999999999994e-01 5.2631578947368418e-01 4.9999999999999994e-01
    5.2631578947368418e-01 4.9999999999999994e-01 5.2631578947368418e-01
    4.9999999999999994e-01 5.2631578947368418e-01 4.9999999999999994e-01
    5.2631578947368418e-01 4.9999999999999994e-01 5.2631578947368418e-01
    4.9999999999999994e-01 5.2631578947368418e-01 4.9999999999999994e-01
    5.2631578947368418e-01 4.9999999999999994e-01 5.2631578947368418e-01
    4.9999999999999994e-01 5.2631578947368418e-01 4.9999999999999994e-01
    5.2631578947368418e-01 4.9999999999999994e-01 5.2631578947368418e-01
    4.9999999999999994e-01 5.2631578947368418e-01 4.9999999999999994e-01
    5.2631578947368418e-01 4.9999999999999994e-01 5.2631578947368418e-01
    4.9999999999999994e-01 5.2631578947368418e-01 4.9999999999999994e-01
    5.2631578947368418e-01 4.9999999999999994e-01 5.2631578947368418e-01
    4.9999999999999994e-01 5.2631578947368418e-01 4.9999999999999994e-01
    5.2631578947368418e-01 4.9999999999999994e-01 5.2631578947368418e-01
    4.9999999999999994e-01 5.2631578947368418e-01 4.9999999999999994e-01
    5.2631578947368418e-01 4.9999999999999994e-01 5.2631578947368418e-01
    4.9999999999999994e-01 5.2631578947368418e-01 4.9999999999999994e-01
    5.2631578947368418e-01 4.9999999999999994e-01 5.2631578947368418e-01
    4.9999999999999994e-01 5.2631578947368418e-01 4.9999999999999994e-01
    5.2631578947368418e-01 4.9999999999999994e-01 5.2631578947368418e-01
    4.9999999999999994e-01 5.2631578947368418e-01 4.9999999999999994e-01
    5.2631578947368418e-01 4.9999999999999994e-01 5.2631578947368418e-01
    4.9999999999999994e-01 5.2631578947368418e-01 4.9999999999999994e-01</output_scale>
  <inv_output_scale>
    1.8999999999999999e+00 -9.4999999999999996e-01
    1.8999999999999999e+00 -9.4999999999999996e-01
    1.8999999999999999e+00 -9.4999999999999996e-01
    1.8999999999999999e+00 -9.4999999999999996e-01
    1.8999999999999999e+00 -9.4999999999999996e-01
    1.8999999999999999e+00 -9.4999999999999996e-01
    1.8999999999999999e+00 -9.4999999999999996e-01
    1.8999999999999999e+00 -9.4999999999999996e-01
    1.8999999999999999e+00 -9.4999999999999996e-01
    1.8999999999999999e+00 -9.4999999999999996e-01
    1.8999999999999999e+00 -9.4999999999999996e-01
    1.8999999999999999e+00 -9.4999999999999996e-01
    1.8999999999999999e+00 -9.4999999999999996e-01
    1.8999999999999999e+00 -9.4999999999999996e-01
    1.8999999999999999e+00 -9.4999999999999996e-01
    1.8999999999999999e+00 -9.4999999999999996e-01
    1.8999999999999999e+00 -9.4999999999999996e-01
    1.8999999999999999e+00 -9.4999999999999996e-01
    1.8999999999999999e+00 -9.4999999999999996e-01
    1.8999999999999999e+00 -9.4999999999999996e-01
    1.8999999999999999e+00 -9.4999999999999996e-01
    1.8999999999999999e+00 -9.4999999999999996e-01
    1.8999999999999999e+00 -9.4999999999999996e-01
    1.8999999999999999e+00 -9.4999999999999996e-01
    1.8999999999999999e+00 -9.4999999999999996e-01
    1.8999999999999999e+00 -9.4999999999999996e-01
    1.8999999999999999e+00 -9.4999999999999996e-01
    1.8999999999999999e+00 -9.4999999999999996e-01
    1.8999999999999999e+00 -9.4999999999999996e-01
    1.8999999999999999e+00 -9.4999999999999996e-01
    1.8999999999999999e+00 -9.4999999999999996e-01
    1.8999999999999999e+00 -9.4999999999999996e-01
    1.8999999999999999e+00 -9.4999999999999996e-01
    1.8999999999999999e+00 -9.4999999999999996e-01
    1.8999999999999999e+00 -9.4999999999999996e-01
    1.8999999999999999e+00 -9.4999999999999996e-01</inv_output_scale>
  <weights>
    <_>
      -8.6677678912733869e-01 1.3377284022665536e-02
      -5.9357251734230199e-01 -1.9245517792989483e-01
      -4.6148363948310744e-01 4.5521327063982076e-01
      8.0349503931283417e-01 7.8460222450734984e-01
      -1.9861623057716973e-01 3.6231108808811424e-01
      3.6458462088072668e-01 2.2424543868397090e-01
      -3.8325703121103022e-01 -1.5916953058543590e-01
      -2.0361730589873739e+00 -3.8761716098949878e-02
      -1.6744900650629860e-01 6.6310307191505699e-02
      5.5563707336661050e-01 2.8331240446657130e-01
      1.0295885175102198e-01 -3.0852864639764715e-01
      6.1666803173269051e-03 -3.1777314836033943e-01
      -5.1360259099935268e-01 -5.5591435923521937e-01
      -1.7793766554750012e-01 -3.8770091506188981e-01
      1.4402011370416246e-01 2.8824228404116481e-01
      -2.6720048408257167e-02 -1.8783457580233778e-01
      -3.4002165817037644e-01 3.8219162680877244e-01
      2.6694825981746256e-01 -2.5932202843093477e-01
      4.5597554397040713e-01 1.1945357885193603e-01
      -2.3254613975229976e-01 -1.4462687195892657e-01
      6.1953217140205803e-02 -4.4292059247423421e-01
      -4.2883463413675632e-01 -1.9918557812065626e-01
      4.7302486347374391e-02 3.8351807115463188e-01
      -6.0544630240905040e-01 4.0661763309461491e-01
      6.0714898135351592e-01 -2.3399170467276162e-01
      7.4886456685786373e-01 2.5435104950711690e-02
      -6.3694670687945643e-01 -3.4778212213697274e-01
      -3.8392431861779741e-01 3.4950002636587024e-01
      5.3417015465748063e-02 -2.8112794497099131e-01
      -6.4564304424891539e-01 -3.0737662776586766e-01
      5.9609384969858314e-01 -3.0048776141024769e-01
      9.3244311580574757e-01 3.8842743441726968e-01
      1.0800492819841413e-01 -4.6055488667443578e-01
      -2.3039640469358101e-02 -1.8160439000696982e-01
      7.6164497911665974e-01 8.3194678434480959e-02
      -3.5716754222750398e-02 4.8945082242526167e-01
      -1.4580494385965972e+00 1.8407033685814389e-01
      3.5781126271014496e-01 -2.9298337910625652e-02
      1.2745559580949926e+00 7.4179066628354251e-01
      1.9480102812957839e-01 4.3223667738042697e-02
      1.9113425895178590e-01 2.6556509320982680e-01
      -3.1651623339521684e-01 -2.1561702735048968e-01
      2.1751599816966205e-01 5.6471698841128704e-01
      2.4847557486078303e-01 -1.4552878800525804e-01
      1.9984742378930123e-02 -1.1554144802718372e-01
      3.4026277930498955e-01 4.7585119444696306e-01
      3.8511659003194842e-01 -2.3480756300970799e-02
      5.9339565295716623e-01 -3.6899938856659109e-01
      -3.3039824794471578e-01 5.8403526183811405e-01
      6.4818406006596463e-01 -3.5018488424696004e-01
      7.1334094950261484e-01 -3.1916861981019079e-01
      -9.1608450576819633e-01 -4.5438844222386648e-01
      -4.9244862736272654e-01 9.7489435517435374e-01
      1.3412701959804432e-01 5.5300562769821582e-01
      1.6145830904610720e-01 1.0946652341428796e-01
      -2.2066899121469341e-01 5.2723878264811785e-01
      -3.3008676099721018e-01 8.4207260773193460e-02
      -8.9616141763329535e-02 6.2947928321973198e-02
      -2.1155769548971773e-01 9.1819494755726483e-01
      1.2120381059841066e-01 2.6495158310549310e-01
      4.8864469789227150e-01 -3.6243611626590300e-01
      -3.2974720437433874e-01 4.1609248847697783e-01
      -1.6235471396020797e+00 -2.0550386266209136e-01
      -6.3381836839662575e-01 3.4977813060766368e-02
      1.7710681889930413e-01 -1.4393702928802554e-01
      -2.1219552885892164e-02 -7.1869545602457852e-01
      4.2803327962837617e-01 1.3160885772218864e-01
      5.4077808092892776e-01 2.1435234919894214e-01
      4.8630343602216325e-01 3.3574187510433623e-01
      -1.1245665329563709e-01 -3.5610674847086821e-01
      -9.4825690549958139e-02 -1.5553087326972218e-01
      -5.1510483778893734e-01 8.9644514250033364e-02
      -1.7032489570625520e-01 2.2910510871383752e-01
      2.0730211204398355e-01 6.4305711323748060e-01
      6.8021421840686780e-01 3.7705273312768123e-01
      4.5892208702054044e-01 -3.0004497226193749e-01
      7.5043398707819164e-01 -9.6635369673338745e-02
      -2.8841829983934291e-02 3.0312975083770771e-01
      3.2722884048702672e-01 1.6225103424406695e+00
      -5.5561070027052839e-01 -3.0508539734224432e-01
      1.6399897761183968e+00 -1.8210516192864348e-01
      2.2660004486556939e-01 -3.6655191127888564e-02
      -2.7873421419984429e-01 -5.7766134208102515e-01
      9.2086666488808144e-02 -2.3751434427661328e-01
      -9.8570760385567735e-01 1.7893871033789744e-02
      4.7383966812492001e-01 1.6890811486102258e-01
      -8.8729547269223857e-02 -7.2348512488643724e-01
      4.4591083315447679e-02 2.7941979515094761e-01
      7.7411451763220340e-01 -1.1335791754120597e-03
      -7.9820121916364950e-02 -3.0571837606599689e-01
      -2.1252667891659680e-03 -4.3782693481994334e-01
      2.0390998357970050e-01 1.9955586234562270e-01
      3.6419245978545828e-01 6.5498803763594005e-01
      6.5643337879740860e-01 4.5038736284884578e-01
      -5.9329908682421217e-01 -2.8466686363751537e-01
      2.5175067097790277e-01 4.6782254664072670e-01
      -6.1770051593217046e-01 -2.2398544495044487e-02
      2.2195574719103983e-01 -9.1057688015265023e-02
      -5.4309148016969033e-01 4.5487574182231955e-02
      4.7492691262566883e-01 -4.4045481641857837e-01
      9.2246852059270579e-02 -2.2755256039709296e-01
      1.7292782940887516e-01 -3.5494420616239925e-01
      -5.6807401444447259e-01 8.0942124365603452e-01
      7.8726096503112575e-01 2.7395782839129673e-01
      -4.2148767370334800e-01 2.6949884003590041e-01
      2.7505542385740289e-01 -3.8434371863867201e-01
      -1.8693097283557322e-01 -4.2140144655839651e-01
      -1.2873654893676787e+00 5.1790731970589599e-01
      -6.4485154630086654e-03 1.6210260153719536e+00
      -4.4223526023443316e-01 5.0989544485158689e-01
      6.0884958113841048e-01 2.5597515673727811e-01
      4.6144893650392005e-01 -6.0036042724600447e-01
      2.7659757048251415e-01 2.2576114112083367e-01
      2.5430883955718442e-01 -6.5476961386571386e-02
      1.8354318870361208e-01 8.2479782811034449e-02
      4.6740492088952207e-01 -7.2646632182122500e-02
      -1.8308553331284312e-03 4.3782490168929555e-01
      4.2893122202018125e-01 3.2233886316469718e-01
      -2.8491458202326508e-01 1.4645451991796130e-01
      -1.9591964375657650e-01 -4.0790924483430874e-01
      3.6707079496724399e-01 -5.6123942961916984e-01
      -6.2724450836283419e-02 2.3898561974974339e-01
      7.9810964798442144e-02 7.8919044567894958e-01
      -2.6428844991992394e-02 5.2930283002883799e-02
      -1.6777328088422136e-01 -1.1671888735161022e-01
      5.0128243690515328e-01 -5.7690998937839535e-02
      5.1760735419086967e-01 -5.8207029983324077e-01
      3.7416595627791466e-01 -2.8004017092804884e-01
      2.5850772639899505e-01 2.0494208782414902e-01
      7.8254402073783244e-02 -1.4046027001085554e-01
      8.0694761822697736e-01 -2.8404859268706717e-01
      8.1892728697517969e-01 -5.1009820648955470e-02
      -4.2724566003110420e-01 -5.6426442043822456e-01
      -2.5895555601820514e-01 -4.6928624540038050e-01
      -6.3572628630081382e-02 -5.2144018779887932e-02
      2.5037836799807167e-01 -7.7376605749346483e-01
      3.3387074110789161e-01 4.1058416303430989e-02
      3.3134063301229250e-01 -4.5906615054946759e-03
      2.9516451636274527e-01 1.2711271748135222e+00
      -4.1772021716473101e-01 -1.9907663709014964e-01
      3.7320260531979599e-01 2.5257355767648504e-01
      7.0169131497377202e-01 1.7730180393916173e-01
      -1.5855078233100239e-01 3.5098761264093931e-01
      1.9811673725293858e-02 4.3446810788836654e-01
      -2.9414465312255111e-01 -1.6701517515709885e-01
      -3.2132064652900211e-03 -5.5680203689282048e-01
      4.9975112255702775e-01 -2.7645302097446939e-01
      4.2635267188811937e-01 -4.0462937489701256e-01
      6.4111112603245354e-02 1.6658001581333723e-01
      -8.5863636955946510e-02 -8.6736812834340959e-01
      -1.0249555609356704e+00 -3.4681271638699862e-01
      -1.1142735649062242e-01 -1.1674042816634964e-02
      -5.7118361152977271e-01 2.4515098457670323e-01
      1.5256040769309500e+00 1.8003315120491048e-01
      3.3300349711216576e-01 9.1193435409371609e-02
      1.0441689326882030e-01 1.6519442846266857e-01
      -3.5442708518592775e-01 -3.5706887875016863e-01
      -1.0251954145331597e+00 4.8415391096537314e-01
      -5.8828637891399582e-02 5.8338986106373791e-01
      -2.5429498248299076e-01 -5.5534680800770342e-01
      -2.5856173080001077e-01 7.3398798312627633e-02
      1.8829882576888277e-01 -1.0286353586451384e-01
      -9.3438005485741482e-01 -1.3324194597863301e-01
      2.8404605473784239e-01 -2.1409284539849788e-01
      4.1919105139396085e-01 3.7800810620524156e-01
      3.1913564995218724e-01 -1.1609761480331650e-01
      4.8654235852084071e-01 5.0846834671960572e-01
      1.9526401874965690e-01 1.0848363570819071e-01
      2.8779161608390630e-01 1.7984217540767458e-01
      -2.4844624638806317e-01 -9.9816472917702737e-02
      -8.8484827071828101e-02 -4.0760930509608256e-01
      -1.7743079055973737e-01 -1.9436655843805634e-01
      -9.2360492931207239e-02 4.1217759780851226e-01
      -5.9690151839941186e-01 5.2964555406836566e-01
      4.3817156754226322e-01 -3.7279842003089997e-01
      4.5796272261579857e-01 2.2178695115957395e-01
      8.0431402979341160e-01 -2.9514348421233777e-01
      5.9965373702155444e-01 9.6103570241248937e-02
      2.3532264494192898e-01 -1.7331952556303978e-01
      -1.0547486821755891e+00 -4.1100646325133501e-02
      -3.3347495398218402e-01 -4.0657848888862835e-01
      2.3744978787902823e-01 2.1800404245765628e-01
      -4.1593487652323791e-01 6.0074879307055323e-02
      -1.1359551276562238e-01 -3.6683265802598969e-01
      1.5133714011998284e-01 2.1279947475614050e-01
      1.2731513985046899e-01 2.1048697409516057e-01
      -3.2401194821777130e-01 2.6726974703861039e-01
      2.5141320619979945e-01 -2.6920695102672837e-01
      -8.1588398132969556e-04 1.4324280526861524e-01
      -7.3229614920139768e-02 -7.1059539350965026e-02
      3.4169425866525382e-02 -4.6602382540721365e-01
      -6.8549078818899864e-02 1.5696385091387172e-01
      -6.2332158741994895e-02 4.7648967098925699e-01
      2.4526396028832603e-01 -1.5819548060454208e-01
      -1.2495579222222401e-01 3.1052660219254075e-01
      6.6341766342381633e-02 1.9795854988203906e-01
      6.6781861660830100e-01 -1.1863481429743242e-01
      2.4873241372473642e-01 -2.5759843251158729e-03
      2.5248046779048194e-01 2.6188949448768700e-01
      -5.7031251140051675e-01 2.3404994454290937e-02
      -5.2367976598839971e-01 1.2616454207522868e-01
      -6.7956477887789069e-01 -2.1026108221270834e-01
      -6.1103417320076125e-01 1.0716585212515016e-01
      8.1215747807911701e-02 9.8690016192612195e-02
      1.0411319811813986e-01 4.1948891619448453e-02
      8.0345184265879152e-02 1.7488437883514035e-01
      -2.2631932315473183e-01 -2.2504274132065835e-01
      -6.6481690193220233e-01 1.5724926862761404e-01
      -4.8923615948932792e-01 4.4540382820762692e-01
      3.0232296119475793e-01 -3.6586148247600142e-01
      1.0138310824286989e-01 1.3898357098641889e-01
      5.5030602848710919e-02 -1.6561033582061321e-01
      -9.5529352659379108e-01 -1.4385710287024947e-01
      2.6613695139198040e-01 4.7361383900941204e-02
      4.1622112955990170e-01 4.3636329651476580e-01
      2.1801026276723087e-01 -3.1756232380432142e-01
      3.0611170692932382e-01 -7.1906258624276270e-02
      5.4647534184045288e-01 5.5970675829440752e-01
      7.2025043647804932e-01 1.4020510434580755e-01
      -2.3019670744364265e-01 3.4337445945469725e-01
      4.0139988485010769e-01 7.3596971384792348e-02
      2.4066460119283051e-01 -4.1283999531285381e-01
      1.0992929740206514e-01 3.0461399912928733e-01
      9.7088870050448639e-02 1.8487826740330806e-02
      5.5533365611281249e-01 2.4927115069871800e-01
      4.5881442005367014e-02 3.1944927735227624e-01
      -5.9682445249185312e-01 -3.9775670084854930e-01
      4.6582131031673679e-01 4.7881725799475827e-01
      1.5184024023125509e-01 1.4155118291049820e-01
      -1.7907126546777744e-01 -3.8170721449485479e-01
      2.6442943261827961e-01 -3.2083789042805005e-01
      1.2917795854366182e-01 -2.8681263262790369e-01
      -8.8533939614800203e-02 -3.3772700947895556e-01
      -4.4138154972048399e-01 -3.4724095325155568e-01
      1.2367333037526429e-01 1.8748518591554120e-01
      -1.0154710158232294e-02 -1.5202527447751685e-01
      1.0230909478516306e+00 7.9971838706792675e-01
      2.6648191318723619e-01 1.7177449220411464e-01
      3.1239016882324927e-01 1.8549517204342408e-01
      -1.5035227290778261e-01 2.4836655410581190e-01
      -4.7184620185107479e-01 -1.9708087923922415e-01
      -3.7719337502695453e-02 -1.4493767089173118e-01
      1.8083178363329769e-01 5.1539654763993714e-01
      -1.4764837540460601e-01 -1.8120827249141544e-01
      -4.0959297917892701e-01 -1.6697834743809420e-01
      1.2725907369032388e-01 6.1532088306387234e-01
      7.8602751504926005e-01 -4.3833479511541218e-01
      -2.5479849393614539e-02 -6.7564254403212387e-01
      3.3885506470491794e-01 2.7782302551040611e-01
      -3.6034405725961066e-01 2.4525798365017476e-01
      -4.9306442652029187e-01 -3.4780948959042091e-01
      1.0941860374492980e-01 -2.2955989420890494e-01
      -3.7677764269281677e-01 4.0509579665590101e-02
      5.5116345091542562e-01 1.9104254089395264e-01
      -4.1489183124403049e-02 2.9232319828377917e-01
      -1.6014139886339923e-01 3.1649930979684326e-01
      7.5869516835833225e-03 -3.8166639049779094e-01
      -4.6089205225215013e-01 -2.4586141658741653e-01
      -1.9573693545487331e-01 4.6393250812648734e-01
      -4.2066287069828967e-01 -1.2386922894404903e-01
      1.7004637277598705e-01 -1.7001370279649652e-02
      2.4245764103119830e-01 -1.4114031398856047e-01
      -2.4308430006361642e-01 8.5104306351400094e-02
      -3.6130813549677521e-01 -1.2591263662540286e-01
      1.8244377477619159e-01 4.6825841490586673e-01
      1.7896823209475071e-01 9.7014383754121400e-02
      -1.0166176858642249e-01 2.4755556143049844e-02
      3.1845834296694764e-01 -2.1617804528699922e-02
      3.4605648520691856e-01 2.4502988593929537e-01
      1.2037930122755966e-02 3.5836897880999885e-01
      -8.4109830631888108e-02 -4.5389554415352212e-01
      -3.8039784164811219e-01 -1.4279788320924994e-01
      -1.1412653297244610e-01 1.0769062887738826e-01
      2.3224440979538102e-01 4.3742142033023507e-01
      9.3000115259772795e-03 -3.1713754975477138e-01
      3.7848738466991433e-01 -8.8964099900105571e-03
      4.6433306452651335e-01 -3.4919080340256242e-01
      -6.3711997929824168e-02 3.3304623663133576e-01
      3.3794284053127427e-01 2.1055542540597932e-01
      -2.4317368298181971e-01 -7.5115571663010527e-02
      1.0353289730500956e-01 7.1056994971268689e-02
      4.7732849041689529e-01 4.1647453490608005e-01
      -9.6973457837320143e-02 -1.3353323024325864e-01
      -9.7374165272254870e-02 -1.1600328714792094e-01
      -6.2701802934849471e-01 2.9881519452122940e-01
      1.6769796770427023e-01 -2.4278170618573371e-02
      5.4154533440195129e-01 3.3144807479063543e-01
      3.0470000174046141e-01 2.4714841408345251e-01
      -8.5212539485149640e-03 7.1125100434128408e-01
      -1.2697995665435291e-01 1.5928265948619386e-01
      5.0220778342442422e-02 -8.0846981389112921e-02
      -8.0491804145715246e-02 -2.2695540292135755e-01
      1.8547266416823308e-01 5.7528723869767984e-01
      3.9690230362598694e-01 -5.5548805865271250e-02
      -1.0104674328870583e-01 3.2796998574023983e-01
      1.2125849369862424e-01 2.3800208265834299e-01
      -3.3754708092405045e-01 -2.1173812553168816e-01
      2.5696450196536524e-01 9.7458787941835573e-02
      -2.0322809551248844e-01 4.6716991346984743e-01
      2.4014870056780660e-01 2.9354503923711844e-01
      2.6691049970315489e-01 -1.8656853728851847e-01
      1.6229621475786274e-01 1.4268832338748458e-01
      3.7430474227645666e-01 -1.9700572702911073e-02
      8.4441916415215079e-01 2.1031843943124948e-01
      4.8830004538591532e-01 1.0452696817345589e-01
      -4.0735044657554081e-01 6.2469788649295921e-02
      -1.2738719983141163e-02 -4.2780715333219876e-01
      -3.0770834869012015e-01 5.3411526372840279e-01
      -3.4836160751985104e-02 7.1509109454226938e-01
      2.2946311258163748e-02 -4.1578650315351066e-02
      -5.5838688351697741e-01 -1.1990419610658998e-02
      3.6623011762363900e-01 -7.8557413606335613e-02
      -7.5294780755942592e-01 1.3304433468643301e-01
      -3.2519166638540348e-01 -5.5057557972963944e-01
      6.0488769178328805e-01 5.2393857244797815e-01
      2.1196516082701283e-01 -6.1492153233223060e-02
      3.0751693098619082e-01 -5.8882001977311617e-02
      5.4074064861881910e-01 2.4574448441394163e-02
      -2.1336980861954377e-01 -4.0857081356581726e-02
      -1.5816719243130264e-01 -1.7713741447610856e-01
      4.9854066216540999e-01 5.7859429082870659e-03
      -1.1333109942520171e-01 -4.4093405910471550e-01
      6.3087505794267057e-02 3.1422307033869251e-01
      3.4034730779817639e-04 2.6201006520072145e-01
      3.7551441439055921e-01 -2.5490356396678615e-01
      1.7549955622813349e-01 4.6157865958875227e-01
      4.7355387078290745e-01 -2.9078486408796878e-01
      1.1721313072904788e-01 5.4134175307259436e-01
      4.0928784417594627e-01 -1.2538652615143400e-01
      -3.5210004571298698e-01 1.1113992448532883e-01
      2.8705529485438214e-01 -2.9809190537069180e-02
      -4.0412730333504338e-01 -1.7014808912787441e-01
      -1.9562249302706608e-01 5.9949636125324932e-02
      -6.8015497703579980e-02 -3.9772939713721395e-01
      -5.5151028140920078e-01 1.3285736950368970e-01
      1.3391207754133930e-01 -2.7842108231630209e-02
      3.2507581063442331e-01 -3.5951137535765387e-01
      8.2954388172649579e-02 -9.6182713057622382e-02
      -1.1803736288674356e-01 7.1111007960307793e-01
      -2.0194470226337202e-01 1.5672148675040395e-01
      1.3812986745562200e-01 -2.2024056669971096e-02
      2.0058758665819396e-01 -5.7379608108641922e-01
      2.9396437413669989e-04 -5.9883735918958951e-02
      2.2910409254995642e-02 -5.7741085034418660e-01
      -3.3238624318680260e-01 1.9173185335364035e-01
      4.6201129946416081e-01 6.2669187096977674e-01
      1.6541621771910328e-01 -1.8658428763687687e-01
      4.5632151745633642e-01 -6.2375657221802668e-02
      1.4370843184730672e-01 1.1020478128465987e-01
      -1.2864588829224533e-01 1.7177172451967040e-01
      -2.0560480894280014e-01 -2.7967391316232987e-01
      -4.8859585730018817e-01 -8.9640959046779822e-02
      -4.4706897242895210e-01 4.1845261650426641e-01
      6.0350715521752518e-01 1.0671898618118354e+00
      1.5054394034029228e-01 1.1947106757813422e-01
      -2.3747168039117936e-01 -2.8675617100045242e-01
      4.3848554513743393e-02 -5.5888664710239910e-01
      -2.5173564028796291e-01 1.3587798207989821e-01
      1.1710544158539891e-01 4.3196128083756984e-03
      -7.4492406706066841e-02 -3.4153282173492623e-02
      1.8187273339136664e-02 -3.0556723308754147e-01
      1.4512585533497924e-01 -3.8151632229408472e-01
      -3.1667050337212360e-01 -2.2963835093951934e-01
      -1.5510078511195757e-01 -1.1859157277307817e+00
      2.3267231785019944e-02 3.6554008718936964e-01
      2.2739073180966504e-01 1.5912749753236996e-01
      -4.1334058854473676e-01 3.7290722273268667e-01
      -4.3373097031281621e-01 2.4154998270746311e-02
      -6.0509036201051791e-01 5.0121799342565287e-01
      -4.7731426376969932e-01 9.3357826058803717e-02
      -1.6708649736667608e-01 -2.5268722677582806e-01
      -7.9607791172918538e-02 -2.5702496371940375e-01
      9.2338811488319961e-02 3.6139246218925741e-01
      5.3112819175309606e-05 -7.8617140949593878e-02
      3.2877350203226857e-01 -1.2498498989445099e-01
      -2.8839017575325337e-02 3.9579093336996291e-01
      9.9345118188782111e-01 -5.5245490003653108e-01
      1.0375473452900590e-01 -8.8648998330756915e-02
      7.1152223486329369e-01 -1.0944535877515237e-01
      -8.3233450742458501e-03 -3.8701903499789003e-01
      -3.7500125145945098e-02 1.0320254353369894e-01
      -3.4002467409363724e-01 1.7747726768995667e-01
      2.5778648985429553e-01 -2.9434049561931197e-01
      -2.9730634583305326e-01 3.7318629043972318e-02
      -1.2616679079410179e-01 1.0869961964283158e-01
      3.7847301420994489e-01 -1.7974009700794666e-01
      3.1044845531748710e-01 -4.6311747964489441e-01
      2.0684432251601409e-01 9.4403667648356102e-02
      1.4994516745413164e-01 9.9246326081923630e-02
      -2.4458410347432363e-01 2.1808782573107066e-01
      4.8785656681679934e-01 3.1187209179131498e-01
      5.8902654726887449e-01 -1.1483161272555982e-01
      1.2344628056952708e-01 5.0893716820866179e-02
      2.1003567838123291e-01 4.6067584147659699e-02
      2.3454715240871307e-01 -1.0901790414080501e-01
      1.4993537263343953e-01 -1.2483194878832859e-01
      3.2648242911773184e-01 -2.1264481808838911e-01
      2.6863248891337277e-01 5.2019858057079316e-01
      -1.2049485573711784e-01 2.1294083441096048e-01
      -2.8940765925306583e-01 -1.1952541304571357e-01
      -5.5463366516743540e-01 -6.6880869496683759e-02
      2.5956176441432860e-01 -2.1941137518573749e-02
      1.5790399051575527e-01 2.4125879453841070e-01
      2.4900740090769652e-01 6.2003636567163756e-01
      6.5264848611105819e-02 -1.4697210113405962e-01
      -3.4527480632335950e-01 2.0159552989736273e-02
      1.4334875922896897e-01 -4.4193870021699810e-01
      2.0882622648200533e-01 6.1209752434799362e-02
      -4.5990074621816274e-01 4.9146487026407792e-01
      -5.0917021249738167e-02 1.6222599298661773e-02
      6.7667021954151821e-02 -2.1042494626706543e-01
      4.7195821380753594e-01 -4.6066460973065826e-01
      -2.2832277836423862e-01 5.0693868260274422e-01
      -1.6611956089305269e-01 -2.8244248305584996e-01
      5.3417710614683915e-02 5.0674073380437390e-01
      1.4296130279618676e-02 1.2910646387457636e-01
      3.6511199364449592e-01 4.0894819964947482e-02
      -1.6480582146766926e-01 2.3425684299645125e-01
      1.5210279592871911e-01 4.7360286695405140e-01
      1.0439970556126785e-01 -3.0250420921226423e-01
      -7.3214998718704211e-02 -3.7718791226832654e-01
      1.9609038133918330e-01 -2.9004497118675598e-01
      -2.0838826618782158e-01 3.9788035152505891e-01
      1.4934152949729276e-01 4.5446855546509812e-01
      -9.9093817066129686e-02 1.4210442645768481e-01
      3.8911440362730565e-01 3.9924506361971829e-01
      5.8843520354893125e-02 -4.1144913873614603e-01
      2.9343822937194691e-01 -5.9018022675784938e-02
      4.6271022324210632e-02 3.8570371266070758e-01
      1.7228425695465380e-01 1.3162229970005301e-01
      9.0999621805938458e-02 -2.0968783555489853e-01
      8.2565995806580014e-02 2.4374848506860905e-01
      -2.7745184766469810e-01 -1.9868362824800612e-01
      -1.1132985709848352e-01 -3.8754254663191895e-01
      -1.5883089721394242e-01 -1.0624453256618871e-01
      4.3271992572271184e-01 -2.2764711787476308e-01
      -2.8431152277155936e-03 -1.5091953659612700e-01
      4.1560354409272193e-01 -1.6913833528749189e-01
      2.2716383316439964e-01 5.0742299015243209e-01
      -3.6065572605150936e-01 2.4902496419466758e-01
      3.9517128408460933e-01 -1.5087181913193398e-01
      -3.9583613012216712e-01 2.8284624137700248e-01
      -9.1124796179893913e-02 1.8954698456223287e-01
      -1.1423879691769651e-01 -2.1326629264930475e-01
      4.1365433602672301e-02 -4.2860410357943843e-02
      4.5285913359434093e-01 3.7997196203084493e-01
      3.0997954171486036e-01 2.0543660643594631e-02
      1.0652392855291140e-01 7.5737182470234879e-02
      -3.4012538237180645e-01 -5.1608803040042783e-02
      2.9554839803746441e-01 -7.4441379438204669e-02
      -4.7829684261757471e-01 -2.4652000631428037e-01
      4.1534277344231024e-01 -5.6449609550824797e-01
      -8.7506052119169275e-01 2.5913477890484582e-01
      5.3420463223037107e-01 6.2717139534672373e-01
      -7.2727530801780432e-02 3.0230791736242252e-01
      -6.2623098136718125e-02 1.3619105006617238e-01
      1.0448288724137497e-01 -1.8922367500875401e-01
      1.0211238774338943e-01 2.3863285814995067e-01
      -1.8538203307366163e-01 -1.8895183683885702e-01
      -1.0070064512202714e-02 1.6892495827522547e-01
      1.9690199518626381e-01 1.1099954449827081e-02
      3.6392340612614804e-01 -5.2948484925051964e-01
      9.3560735659327460e-02 1.2544712183883366e-01
      -3.1230023324373191e-01 -5.1716286790961363e-01
      3.8916843121210731e-01 1.9285992084462796e-02
      3.2141373760958353e-01 6.7167611311791026e-02
      -2.6905842118639604e-02 -3.0093481585261989e-01
      5.4518994629401511e-02 -1.0096071400899051e-01
      -2.9031000250288436e-01 -3.0678022218454387e-01
      2.7419409850449411e-01 6.3884201668510374e-02
      3.4827868244074872e-01 6.4555120470729144e-02
      -1.4937360244700365e-01 -2.3613121033573586e-01
      -3.5662569402296440e-01 7.2996017168089899e-02
      4.4283897086161472e-01 1.9477365774536246e-01
      2.6379312982865655e-01 -3.9275926030089825e-01
      2.8246884652597636e-02 -1.2602489504261757e-03
      5.3380184148980758e-01 -6.7043719085108006e-02
      2.3749140303607172e-01 1.7133556909218789e-01
      4.6826694580659212e-01 1.5378623770281619e-01
      2.7252552188491264e-01 -2.5448818237788556e-01
      -1.1642370022799553e-01 -4.6932750040059501e-01
      -3.8118369196742309e-02 5.4851333415578651e-01
      -3.4383179427546828e-01 -3.4225037812235132e-01
      -3.3560132990654290e-01 -2.0576390017438595e-01
      -4.9195628923350970e-02 -8.0455103149675355e-02
      1.6212347670761429e-01 -2.8112211254564839e-01
      1.3769481139388182e-01 2.7057332858781230e-01
      -4.9670010808202679e-02 -2.4467663529053099e-01
      6.9340644793441361e-02 7.8194675723179263e-01
      -1.4917670644308489e-01 -1.2515421823028144e-01
      7.5415842936467326e-01 -4.1622030338531582e-02
      -1.7760214384218262e-01 -3.8077862467699691e-01
      2.3053468612630304e-01 1.2316558636803697e-02
      2.3381433276091326e-01 -5.3307425040141332e-01
      2.8125171991033454e-01 8.0148569211601794e-02
      5.4308620572103172e-01 6.9538462545631119e-01
      1.6634705523197951e-01 -2.3268637355460775e-01
      2.2323573391137477e-01 2.2254689540920849e-01
      -3.2954855827511031e-01 2.4271418658806912e-01
      3.4354540317158294e-01 -2.7986930100506918e-01
      -2.4193632864512399e-02 -1.2011213048674470e-01
      1.2324156844578717e-02 -4.2866464734089521e-01
      -6.1878897772569774e-01 4.7061128093326721e-01
      -1.5976815704252648e-02 4.3316663314821541e-01
      -5.1045717058000747e-02 3.7524264280895431e-01
      -4.3111313242190898e-02 -2.2698359927389936e-01
      4.9539559311224446e-02 -2.6159418917002308e-01
      -3.3122550074639950e-01 3.6778602787562853e-01
      -3.9031814216770927e-01 -8.9226058195384025e-02
      -1.9127329434901552e-01 2.4620356958255454e-01
      3.3917272334600995e-01 1.9606754401717177e-01
      2.1950265266470223e-01 -5.9805276013689634e-01
      3.1813519160409792e-01 2.6580746918439352e-01
      -2.2920348974028087e-01 6.5437255759539059e-01
      -2.8190721230767690e-01 3.3401639807739947e-01
      -7.4804190563531450e-02 4.6474648063441698e-01
      4.0555260020376432e-01 -2.8740487653795527e-02
      6.0729243766147312e-01 1.1846758153230316e-01
      3.7570593775742489e-01 1.1075920836571375e-01
      -5.6034264835310564e-02 1.0923281490770279e-01
      3.0330444494541758e-01 -1.6330708859736817e-01
      1.1054374006418848e-01 4.4800288772939942e-02
      -2.8137590278586438e-01 4.3256421013856905e-02
      1.7687003678651153e-01 6.2091316480994252e-01
      2.0821983074595221e-01 -2.5268730665496431e-01
      4.5253113069954087e-01 -6.8737485142686724e-02
      6.5024278246157419e-01 -3.9243260075063130e-01
      7.6649936021220988e-01 3.4538320053402594e-01
      6.3106316651120997e-01 1.2753032510422663e-01
      -4.2625680043045427e-01 3.1278495294120891e-02
      3.0226107440658728e-01 -4.4890794382746879e-01
      7.0382044466485050e-01 4.1571477177219485e-01
      -5.9952333628057441e-01 4.7052109019647351e-03
      -1.7026537304621264e-01 1.4417506363928187e-01
      -1.7963480690711547e-02 -1.5810976551778582e-02
      5.9250224674559937e-01 -1.4277151452961365e-01
      2.3709512776962069e-01 3.4471200831515419e-01
      4.0126133502037226e-01 1.0456182491528655e-01
      -5.4397499826435536e-01 2.4765649318612876e-01
      1.2863518708818186e-01 -2.1359128557867563e-01
      -2.0747656838569323e-01 -1.6959522064894381e-01
      5.9833383549661290e-01 -3.7831599842142993e-01
      -7.4870841924128115e-02 5.1539180505231375e-02
      2.0010029732343235e-01 -1.8310299215281109e-01
      1.6121681244869865e-01 -2.3754788034214099e-02
      1.9515367393371524e-01 -1.8358070139805857e-01
      3.3287366816722691e-01 2.9620452893199985e-02
      1.9715168972639097e-01 -1.6062391913371629e-01
      -1.2649406592349405e-01 6.1454557067540064e-02
      -1.1111143078627690e-02 -3.5881887140820962e-01
      -1.1060947941326252e-01 -3.4575024746327246e-02
      5.3854389331283274e-02 -4.2702079665006931e-01
      -1.6592681656906996e-01 3.2798994604126186e-01
      3.4359246641315365e-02 4.7521041974338535e-01
      1.8232608008269446e-01 3.6590569199835521e-01
      2.0785302443680237e-01 1.1056192808807182e-01
      -2.9767922212181935e-01 4.2996839441749667e-02
      2.0315935717787453e-01 6.3744263636932885e-01
      -2.9502512541360720e-01 -1.5177845923194752e-01
      7.4161379112346604e-02 -1.1633317503047307e-01
      3.2764470168607845e-01 1.1279092484318988e-01
      -1.5535855982412236e-01 -2.0441097539584013e-01
      6.4609091038184879e-02 2.5884581096191045e-01
      8.9107458241335452e-02 4.3873233925389152e-02
      3.7916328326981213e-01 -9.9255581294485931e-02
      7.5721088188076241e-02 3.5715771102272487e-01
      2.9934580427701790e-01 -4.1938487044607425e-01
      2.2513288485917377e-01 1.0245127716604746e-02
      -1.0193657791403769e-01 1.2222503987298391e-01
      3.1559147712209495e-01 1.7786967097863135e-01
      1.2094341406688257e-01 -1.9760819300149521e-01
      3.0416645494228772e-02 -2.6256602356099484e-01
      -4.0474545546534191e-01 -2.8581805055919912e-01
      -3.9925885462438676e-01 -3.6650332612630281e-02
      -1.6750323411645382e-01 -4.1853679887966494e-01
      1.6597754208386131e-01 1.6009845270215012e-01
      5.9993452820576089e-02 -2.3472356531750549e-01
      1.8207914682208234e-01 3.2328207066488607e-01
      6.3130087662879653e-01 1.2049971326924991e-01
      -2.1456691807115205e-01 -2.9404016348486578e-01
      8.4283625725253913e-02 1.8675277734700524e-03
      -2.2266082992460234e-01 1.0310454246247172e-01
      -7.5337044631669223e-02 -2.7946737867389049e-02
      -1.8167686922723295e-01 -2.6210752080236216e-01
      -3.5782310074513179e-01 -1.0034703652769408e-01
      1.2802954654634008e-01 -1.6613512317885931e-01
      5.2484380961800262e-02 1.8979233158400322e-01
      2.3809935586249567e-01 -3.3219010098918464e-02
      -3.0617664218291801e-01 5.7420078203278024e-01
      6.0960912643590059e-01 -1.4984321126039634e-02
      1.6664364593691283e-01 -3.2407578513069780e-02
      4.2432075437585365e-01 -8.8705928951186883e-02
      6.7071786049924156e-02 -2.3142113720830701e-01
      4.7836048566432955e-02 -9.6037006441744122e-02
      -9.0574122728157805e-02 2.6884789640760759e-01
      -1.8113752261078087e-01 1.0227400351346808e-03
      2.3983507394313189e-01 -4.7519803892905277e-02
      -1.9356741546774452e-02 3.1075577571718960e-01
      1.8396972901799333e-01 4.4071472257479949e-01
      -2.7344585809863087e-01 -4.4720914575447779e-01
      -3.9006431248105788e-01 -9.0002288111959997e-02
      -4.5397686663876030e-01 -9.3586796111247136e-02
      -6.6294678721139433e-01 2.1260012089015998e-01
      1.4968516565721973e-01 -1.9212960092936687e-01
      -1.0106091468651873e-01 -8.2709558975268535e-02
      1.9873823771653926e-01 -3.4226588380373915e-02
      -1.1338115567706367e-01 -1.4889896242053929e-02
      1.8493687619048561e-02 3.1685638024135998e-01
      -2.3328343867546869e-02 -9.0357445247581242e-02
      2.4422713004899994e-03 -3.6577015325318069e-01
      4.2722751239960177e-01 -2.5664090051869404e-01
      2.8317518693117849e-01 -3.5800965766686804e-01
      -1.9855920025808903e-02 1.4047221034681068e-01
      1.3320418479753138e-01 -1.0787824099523202e-01
      1.0764013453542447e-01 2.9344361605084218e-01
      3.2922946525030988e-01 5.0989842351359760e-01
      1.1600153217149685e-01 6.8166240451265209e-02
      -2.3902229575222419e-02 -2.1907603382150012e-01
      -1.4872798209712632e-01 4.3454948597862858e-01
      -9.9136126563606972e-02 3.4568730956994392e-01
      -3.8159240897921687e-01 -4.1500788576567216e-01
      -6.8946820407802612e-03 -2.8635766598439955e-01
      -2.1722653165605735e-01 -3.9742601658869781e-01
      -6.3000556663539287e-01 -4.7383892466203885e-02
      7.7426384236357934e-02 -6.3151535219152566e-01
      1.1850194835662158e-01 -7.1388272745250267e-02
      9.1164875639315124e-01 6.3004500142582890e-03
      2.0679158173370249e-01 4.0199763253910514e-01
      6.2292583122064937e-01 4.7096296593727927e-01
      -1.5245304350323843e-01 -3.2451200807842934e-01
      -2.5840377263904212e-02 2.3158894088049595e-02
      -3.6708717891685244e-01 4.6635710127176783e-01
      -1.7416699294784463e-01 1.5711177249769184e-01
      1.2773931872104530e-01 -3.2660523825948701e-01
      1.1677311081496235e-01 3.2483519619277368e-01
      1.7035085970138042e-01 8.5179705503490091e-03
      -2.1322009787066309e-01 -9.1586365359165742e-02
      1.3704545310495225e-01 -2.1185052800517423e-01
      -1.4230471465686723e-01 3.5162513457623296e-01
      4.6817556019694267e-01 -2.4458131345491563e-01
      3.1484905625490595e-01 -2.6281473289402740e-01
      -8.6566340158427971e-02 -1.8714495713295309e-01
      -2.7105283830639648e-02 3.1660017832222093e-01
      9.5110409508352062e-02 -5.9603422186469378e-02
      -3.0055496968546609e-03 9.8039164803697593e-02
      -5.1601041558849300e-02 -3.1843436681250720e-01
      3.1744188495687198e-01 2.0514717949011194e-01
      2.1743417277264968e-01 5.3801137867578140e-02
      -1.7448155396011233e-01 3.0699275824912392e-01
      -3.4422513126675586e-01 -3.6923953809230851e-02
      -4.1024867653812086e-01 -1.8252131320106748e-02
      -5.5526747498113938e-01 -5.2092228503338145e-01
      1.1305986116842420e-01 4.2278350099556533e-01
      1.8861947969155546e-01 6.2049297874970577e-01
      -3.4553869269070059e-01 -1.3481666813113086e-01
      -9.9562156446666980e-02 -1.9483839571281564e-03
      9.4086267282562516e-02 -4.6807703354150693e-01
      -2.0232414226289821e-02 -1.5702276374848070e-01
      -4.2131554924325673e-02 -8.8238777032204063e-02
      3.9739011235317601e-01 -8.6514156375671850e-02
      6.7823566440651642e-02 -2.5415033481641425e-01
      1.5131384700558634e-01 -5.3123906905661566e-01
      -2.8702179421100611e-02 -1.9464576173267853e-01
      1.5434321738326492e-01 6.8777784462396518e-02
      6.6944384046940575e-01 6.0862326617739250e-02
      3.0769649460915538e-01 2.2320685321416847e-01
      6.5190025744211039e-02 -1.0424277119443752e-01
      1.8508575857790080e-01 -3.8370378725656157e-01
      7.4993898658329450e-02 1.0025649141268771e-01
      1.5789394318812877e-01 1.2572106004693503e-01
      2.9043817243694686e-03 -3.7893804300636474e-01
      -5.6686733120394649e-02 -1.5239410198688280e-01
      -3.8558266177821804e-01 -1.0037110068601554e-01
      -3.7631843310920171e-01 1.3531151080117201e-01
      2.8774910629555717e-01 -7.3087883913906326e-01
      -1.0014797739420667e-01 -5.4697741882307561e-02
      1.2060731069717283e-01 -1.1604272924425005e-01
      3.9420475376713748e-01 5.5138103978416475e-01
      2.6288746738462976e-01 4.8917220043703419e-01
      -3.7350421177746274e-01 -6.0658019062656096e-02
      -1.8030189154900733e-01 -9.7916083863647165e-03
      -3.4570868586556475e-02 2.7970168629591197e-01
      7.2312167629301927e-02 -3.9738549671879825e-01
      -6.0506501490002272e-02 -1.9198263236984167e-01
      -2.7817796624605162e-01 5.7913065532020122e-02
      3.1784462968536487e-01 -1.5198913661367941e-01
      -1.2929896024570632e-02 1.7810707677943585e-01
      2.6414283585715231e-01 7.7699123660134248e-02
      -2.2071746913937473e-01 5.6309945437654371e-02
      -1.0285857853623294e-01 -2.0505602740358306e-01
      -9.9422110122659196e-02 -2.3886106874034430e-01
      9.7446220929710434e-02 -3.3837889996808418e-01
      -2.7906488081853914e-01 -8.3390728558761590e-02
      4.8176088131038980e-01 1.4525948068594016e-01
      2.8822828253992350e-01 -6.3433938925417377e-02
      -1.5670001229248928e-01 3.2240893601564974e-01
      1.3509310491245452e-01 -1.4575533564831569e-01
      7.9942940195276563e-02 -4.5875432759141729e-02
      7.9577168199739381e-02 2.5479806760170892e-01
      -3.1711824297755997e-01 -4.5628322044242237e-01
      -6.2213232619183745e-01 -2.3701364303012820e-01
      -5.7342039705772241e-01 -2.3612159936771479e-01
      -4.2021883200066656e-01 2.1568455925142885e-01
      1.3067892491647115e-01 3.1986064219862276e-01
      -1.5142660485407389e-01 3.4330350658221048e-01
      -2.0293819451793829e-01 1.5620215872611937e-01
      -9.7753854832364137e-02 -9.0016689312767115e-02
      -1.7004231477779055e-01 -1.8176358262025027e-01
      9.7059342060574608e-02 -9.1224074636830271e-02
      -2.3740688933939907e-02 -2.0194534081014187e-01
      -2.1713741652429792e-02 2.2455789957450312e-01
      5.1918979121433603e-02 -4.8734003604112436e-01
      3.0383989533058076e-01 -7.8419418947203709e-02
      1.1721731466375584e-01 -5.5891604450390819e-01
      2.7642187458791301e-01 4.1207706940450878e-01
      7.8344480334457012e-02 4.9117488555489686e-01
      -8.2468014232223705e-02 -5.8772499375877647e-02
      2.3613930486543807e-02 -3.1787953053618206e-01
      5.2977386380390989e-01 2.3973380805559003e-01
      -1.5374386454029165e-01 3.4355295788893814e-01
      -3.5658401836378063e-02 -3.7318276148621626e-01
      -3.0194956461373279e-01 -2.7302994030966687e-01
      -2.2218621562283308e-01 -6.9767227558494266e-02
      4.4619563234892835e-02 1.7632684418204361e-01
      5.2673170538330183e-01 -3.3321357552276976e-01
      2.0758130420906462e-01 8.6672697566116771e-02
      5.5752011479196228e-01 5.8116088513667598e-02
      5.3155172244685456e-01 -2.2000859995087776e-01
      -4.4650797746386882e-02 5.3219367790563898e-01
      -3.7036029116868191e-01 7.4854796315904235e-02
      -4.2456600247775844e-01 5.2182391627731188e-02
      1.8732800394990964e-01 4.9271724151936447e-01
      -2.2170768856781606e-01 -3.6180377054013463e-01
      -3.5878340318591162e-01 -3.1052696812645392e-01
      -8.8608494750658184e-02 1.7528134395400549e-01
      1.1928461628015744e-01 -5.3970595502943357e-02
      4.5968878413876274e-01 2.3831361533803952e-01
      9.3719482681163341e-02 5.3329983449036895e-02
      -4.0211922388246918e-01 -2.3526740734571092e-01
      -5.8199290372398427e-01 1.4841486360947029e-01
      5.8626074511830634e-02 -2.4239977943093538e-01
      6.4026316131124056e-02 -5.2816678908513603e-01
      5.2273823340959993e-02 2.7517841784805325e-01
      -6.6957146654558930e-02 -4.7130287963807643e-01
      2.3849824036149514e-01 -1.6655060375588085e-01
      -7.2688274313377016e-02 1.6625987550262702e-01
      5.7941876861992772e-02 2.0423164313197878e-01
      4.6314532637221095e-01 -8.7307898097277445e-02
      -1.1812620064404120e-01 -9.6978638270570378e-02
      -7.8193082254662469e-02 5.2293707897545977e-02
      -2.3138831063676235e-01 -6.4592902111722930e-02
      -4.3801533002983573e-01 1.2371588181568027e-02
      -2.5444938883290746e-01 -1.4631774763772482e-01
      2.6407287891099401e-01 -2.4118994746501315e-01
      7.7329195268891301e-02 3.2703765552526126e-01
      3.0846499176466410e-03 -7.5872790842192520e-02
      -3.4465551953901843e-02 -1.3899092391082390e-01
      3.1504483016693420e-03 7.3277474480068239e-01
      -3.8630167074804713e-03 1.2406897735955720e-01
      4.4100431786308417e-02 1.2582267458064716e-01
      1.0218173357337549e-02 1.9366635601483512e-01
      2.8559501318745312e-01 -1.2406336955775342e-01
      8.4356239446409950e-02 1.4231398452242466e-01
      5.1349962039848630e-02 2.3904063513135128e-02
      3.4891112202709140e-01 2.0102960054201507e-01
      -8.6699840820687782e-02 2.7484834485515514e-01
      1.7070102457571160e-01 2.2755965669894965e-01
      1.1100822522200754e-01 -2.5760717837915253e-01
      2.3802099777312760e-01 6.8025160304384713e-02
      -2.0922020790133411e-01 2.4616512626691789e-01
      -8.7112485273361087e-02 -3.8352049385181447e-01
      1.4307548682214374e-01 -3.6668896591611017e-01
      -2.1985995023428051e-01 -2.4440330319347672e-01
      -1.3563870877975442e-01 2.0309546163263689e-01
      -1.0858443303024939e-01 -3.9082544336991509e-01
      1.4359333818972139e-01 5.2440517021264857e-02
      2.6355630331298791e-01 -4.9622498723726832e-01
      3.6244413711179485e-01 5.3385899393018343e-01
      -2.4881571808852648e-01 5.0826775250156675e-01
      2.0018996459978067e-02 -1.6733894389768952e-01
      8.9387548559394930e-02 -8.1572261509414296e-02
      -3.0995690068467213e-01 6.6578408780598480e-02
      -4.4243638058876111e-01 -1.2726138802402587e-01
      -9.0443721817259154e-02 -3.4807128791875075e-01
      -1.2260686859710487e-01 3.0788302811854423e-01
      6.3333367036777803e-03 6.6747951910553174e-02
      2.5349372209157300e-01 6.7441783732532970e-02
      4.5672980487604209e-02 1.9568637191427285e-01
      -3.1865798089079500e-01 6.6709815212551218e-02
      -2.1777340089899147e-01 -4.5223082494812605e-02
      2.1891998839171484e-01 -1.6998933027279359e-01
      -2.2379480416545761e-01 -4.0614605808386800e-01
      3.1612698653554161e-01 1.8349995820641365e-01
      -3.0843096441104993e-02 -2.0343562816956826e-01
      9.4053613403582259e-02 6.3540252637729083e-02
      1.4777902565498177e-01 1.7571953444905819e-01
      3.3704399079281896e-02 -9.4914373797543389e-02
      4.4943481619025860e-01 -2.7849546129118335e-01
      -7.1797280677733610e-02 2.5998437913013911e-01
      -1.1130960462562031e-01 3.4401505224788129e-04
      -4.0235408149403074e-01 -9.5044068381320193e-02
      -2.7852937239795900e-01 3.1388806463643809e-02
      -4.9534306759177910e-01 3.7704307059338044e-01
      2.1879836420609933e-01 6.2623083370696955e-02
      1.0516875657517610e-02 2.0853741351243482e-01
      -1.4834997038319001e-01 -3.0172399218565512e-02
      3.5504038472641976e-02 9.0543091927098654e-02
      -2.0884250397999191e-01 4.9222791335342031e-01
      4.1462056868886782e-01 1.3207724448249503e-01
      -6.8583135683081428e-02 -2.4389478231864867e-01
      1.0119355747804672e-01 1.4919527460484594e-01
      1.3689914690155286e-01 -3.3307179828767614e-01
      1.4695048334904526e-01 -1.2753892990235377e-01
      6.9797360833087227e-02 -1.9190300621004133e-01
      3.5744231360485651e-01 3.7587628244055277e-01
      -4.2853604268075114e-03 2.3544672454156587e-01
      -4.7726909876868104e-02 3.7107235226364005e-01
      6.7989763414111615e-02 1.3595187752663600e-02
      2.2854194712842238e-01 -1.8781408820646678e-01
      5.3082036512451879e-02 1.1825545654934869e-01
      2.3195410009368739e-01 -1.2082653331377572e-04
      -1.4372839063935264e-01 -1.0387760616179403e-01
      -2.2968626282550073e-02 4.0307766216068563e-01
      -2.0458878314219561e-01 2.4922571203411900e-01
      3.4944427048311172e-01 -2.4562975698542491e-01
      2.5024860231791390e-01 -1.7198864054865159e-01
      3.9529825285103648e-01 -2.0540531772032775e-01
      1.7636479332564015e-02 1.4358710667042304e-01
      -4.6228963146193687e-02 3.9580001978338974e-01
      1.1181707169279061e-01 -1.0879873224496091e-01
      -7.5940750781298791e-02 -2.2015535822649229e-01
      -5.5144817461583888e-02 6.9536396700339370e-02
      -2.7001908096419819e-01 4.0763668916611859e-02
      -1.7768568205824242e-01 -1.7095742176568718e-01
      -1.3820533875458385e-01 5.1219892028840933e-02
      3.8120467565738292e-01 -2.5183772588127046e-01
      4.8860113330339189e-01 -4.9131338254722025e-02
      3.3574092806502231e-01 3.1679288652482163e-01
      -2.9371325295347006e-01 4.0235336575026037e-02
      -2.7939732922027155e-01 6.6578917214786662e-02
      1.9779151694452632e-01 -8.0856332137672834e-02
      1.8718400756409859e-01 -3.1375704741251903e-01
      4.5437062599058775e-01 1.4497413064732384e-01
      1.3647134446917278e-01 -5.9174740469365250e-01
      -2.0969362325367821e-01 2.3975117530170653e-01
      1.4156560564572387e-01 -2.8551928360854423e-01
      1.1821658966894190e-01 -1.1576797408385416e-01
      3.0345084455681742e-01 -3.9910393586178504e-02
      -8.4588336076689113e-02 -5.7229809962516476e-02
      -3.7238757045668741e-01 -2.1685855925229622e-01
      -1.2824985932523425e-01 -6.8844442962787522e-02
      -1.7223777673443394e-01 -1.4168164666275923e-01
      -2.4375038936240923e-02 2.4300532367822864e-01
      2.1964200598377484e-01 3.8444990093520683e-02
      -7.6244648506055543e-02 2.9420695661024054e-01
      -2.5616384449082219e-01 1.0243472722245458e-02
      4.1264529172558441e-02 3.0466399499305706e-02
      -2.2065293309312969e-01 -6.9856699844740314e-02
      3.6414073570844813e-01 6.8735290780285466e-02
      -4.1512634800032144e-02 -9.5585309372446820e-03
      -7.0018457671459200e-02 -1.5826979541337424e-01
      1.9600159480898577e-01 -3.5744281567994446e-01
      -1.2521083900308921e-01 -9.7122462885744082e-02
      -1.4893762021253862e-01 -1.3842151090868773e-01
      4.1665119609708401e-01 1.7687004123777997e-01
      3.3805810435296418e-01 2.9865194631367803e-01
      8.7379127074592184e-03 1.8947711911254950e-01
      -1.9913114689502378e-02 -5.4763664075266213e-02
      1.9069212082589548e-01 6.3291774037101622e-02
      4.8353488967616952e-02 -1.0375276581143410e-01
      1.3371894950300556e-01 -1.0265161055387113e-01
      -2.8381401945322843e-01 -5.4357253824004959e-01
      -1.8180100953293610e-01 4.6817385171323350e-01
      -3.8548090761622944e-01 1.8206791698503169e-01
      4.3406169363432778e-01 -6.6595738711530017e-01
      2.8993482595600639e-01 2.8764893255417839e-01
      4.4665489780525985e-01 -3.2526737908628378e-01
      1.9566272727499312e-01 9.2580188987730086e-02
      2.8659784258148435e-01 6.3315323433674697e-01
      -6.3947176853208976e-01 -9.7352511066029490e-02
      1.7417054011411454e-01 1.8619010083350269e-02
      6.5883045146452532e-02 1.9446817707864369e-02
      -5.5059538163108913e-02 9.8569703947074455e-02
      -1.0942065926696458e-01 -4.0488194093439830e-02
      -1.1246794713594989e-01 2.9377463323189018e-01
      9.2038332034891382e-02 -1.5687425695369184e-01
      2.9862259339247466e-01 3.6153046882516715e-01
      -4.4344009615126523e-02 -1.3129296458443143e-01
      -1.2613192441789395e-01 3.7735328547358482e-01
      -2.4292308803778223e-01 1.4454659166243980e-01
      4.2579426152769689e-01 -5.1371574570822376e-01
      2.2974787995321760e-01 -7.4518804888205570e-01
      2.2436972084237553e-01 3.0852795487156603e-01
      -6.5166374138438538e-02 -1.4774813112324003e-01
      1.2349492287620716e-02 -5.1237336907344132e-02
      1.3412205119464798e-01 1.5643474714134759e-01
      2.2855044049816145e-01 7.2538579062707831e-02
      3.3274225664953955e-01 -1.2543846461183900e-01
      1.7219096148804594e-01 2.6399818471280817e-01
      -2.7159948760505986e-01 -2.1203853874050538e-01
      -2.0333389632881121e-01 -1.2586015988330543e-01
      2.1609281195483535e-01 -1.4690284507907095e-01
      -3.7863441171863360e-01 -1.9194497133927044e-01
      4.5029700296098052e-01 4.6626442320600280e-02
      1.0254724338710201e-01 3.8353277177494144e-01
      -6.5886453462128750e-02 -2.4320957384920050e-01
      6.2406404456845026e-02 -2.5884769194592211e-01
      -3.9956276163795873e-01 3.6159075422963743e-01
      3.2092276515022106e-01 4.6228977296011019e-02
      -1.9394594906806453e-01 -9.5273568772326928e-02
      -3.5308422717160302e-02 8.6253947385595262e-02
      1.8427442441514583e-01 -4.1659188607715891e-02
      4.3864930118089202e-02 -3.2423708709180134e-02
      4.3285831651444437e-02 -9.5435171016008832e-02
      4.3757886550914399e-01 2.3474236134652918e-01
      2.7237054139179334e-01 3.8442726224744000e-01
      -1.5555655314919195e-02 5.4666415253736278e-01
      2.7000040931669816e-01 -1.1527705419392796e-02
      4.9699480885113598e-02 -6.5517499065410545e-02
      -9.1246235560545985e-04 -1.0014590509221420e-01
      -8.4513061248507215e-02 -2.7043571074735295e-01
      -1.7948513903255026e-01 -4.8181537087488613e-01
      -2.9121368649942497e-01 6.2371977694391612e-01
      1.3854946725798459e-01 2.9842343441446462e-01
      4.6973458067457968e-01 -5.0865760731050624e-01
      3.2134388484876314e-01 2.4125335565699751e-01
      3.9763171806641462e-01 -3.2739947931635699e-01
      5.1927211323498430e-02 5.0007652970551118e-02
      6.8082617344701349e-02 6.8210882669322670e-01
      -7.7578644085736670e-01 -4.4479990650571948e-02
      1.4010260965671898e-02 -5.4245118973935115e-02
      5.8115789358645520e-01 4.2251661050011319e-01
      -1.2798865808027338e-01 -1.1265509604437360e-01
      1.8607943806836606e-02 -7.1665386387533128e-02
      -3.0946292568437939e-01 -1.3289691472502904e-01
      3.0084941901553924e-01 1.1548415176744348e-01
      1.3797701284827441e-01 4.7668385331397584e-01
      4.7614239643266665e-01 -1.3813597237388686e-01
      -2.7820331153696920e-01 3.6887956189421067e-01
      -4.4008299676991136e-01 2.2447632562023842e-01
      -1.5882475679864907e-01 -3.6776312384748583e-01
      1.9135575400887167e-01 -4.4875566337133588e-01
      2.4887167752503878e-01 2.8348443450783195e-01
      3.4109748163890330e-01 -1.4339738939900908e-02
      -2.7499617060766890e-01 -9.8999915470887739e-02
      1.6439960872560327e-01 -2.7874739502678391e-02
      -1.4456889299422271e-01 8.9290935489872353e-02
      -6.9308906899307396e-02 -4.8940409499788334e-01
      -9.2132570088481747e-02 -4.4642816265773773e-02
      -3.1971606540821484e-01 -3.8648880332521762e-01
      9.0210080627846900e-01 -1.1399862469308225e-01
      2.2977065781883516e-01 -2.1630770873943964e-01
      -1.9134513313283674e-01 -8.0995598569910310e-01
      1.4147330195805283e+00 7.3798124917398500e-01
      -5.2108518877002274e-01 -1.0041518211038652e-01
      -1.8736414270962160e-01 -6.3998138450374886e-01
      -4.4869713426578728e-01 1.5225389124002278e-01
      3.8439677336302153e-01 -1.6797230692756328e-02
      4.1491968964695158e-01 6.3274498553540515e-01
      1.5662864089281833e-01 -3.9503685388831429e-02
      4.2917535629980363e-01 1.2882060652951555e-01
      1.9207742297880798e-01 4.8358564262961132e-02
      1.0291686063929757e+00 4.1029178282306600e-01
      -2.5229102620995186e-01 1.4235918763845601e-01
      -4.8422285151159056e-01 -1.1314121603339741e-01
      -3.8436349860237906e-01 -4.9201093763593379e-01
      4.8391320684397776e-01 -3.6465882154686304e-02
      3.3903529792803651e-02 2.6227813362817254e-01
      -1.8376490119261807e-01 -2.7951054953761309e-02
      -2.0822729155205472e-01 -8.1559913040068086e-02
      2.2588168241827716e-01 -1.7172171277977799e-01
      3.4960386860688109e-01 2.5951450042559970e-01
      2.4278435983563478e-02 8.4742198103113481e-02
      9.0157063992637052e-02 1.2410577635324478e-01
      3.2248577749835883e-01 -4.0858693445376215e-01
      3.7196576322971470e-01 -1.3154244967132139e-01
      -6.5485611948835121e-01 1.2836308794681234e-01
      -4.2897750227005121e-01 2.4565751043710304e-01
      3.3212259335868188e-01 1.1575866066059444e+00
      3.9630147361468460e-01 2.4629024673872202e-01
      5.8252976593993797e-02 2.8021436197238797e-01
      -9.2294994373660386e-02 1.5285833949773492e-01
      3.2150307419355525e-02 8.7045994333577167e-02
      2.0637082305561646e-01 -2.9843057416438062e-01
      2.3152241259571865e-01 -1.1774969370678449e-01
      -9.0421219661103336e-02 3.5663363714683910e-01
      2.8798821297785826e-01 -2.7799581326429729e-01
      -1.6167904803045752e-01 -1.0423643525585946e-02
      3.8995205251397713e-01 -2.4488527495143811e-01
      -1.0064652736304164e-01 3.6272605951637454e-01
      4.3398973516826950e-01 3.8978040465411518e-01
      1.8783437467084531e-02 4.0681170704644454e-01
      2.7744062691382276e-01 9.8939526682382858e-02
      -3.3178123618462868e-01 1.3144988595907017e-01
      -1.0351638109453548e-01 -3.4880170714001330e-01
      -5.0939780518647648e-01 3.0096219050091877e-01
      3.2737143650107092e-01 -3.6628395263502211e-01
      -2.7836174820759879e-01 1.3901662304122886e-01
      4.9422470224961884e-01 -2.9727751963014533e-02
      -3.9267373621263607e-01 -5.7885802614209891e-01</_>
    <_>
      2.3361703586403584e-01 1.4582666837704318e-02
      3.4271673301448957e-01 2.5115282121290539e-01
      -1.2563284754353976e-01 -2.0022526305852853e-01
      1.8715455660964705e-01 -1.2477410950472281e-01
      -1.1304341688935706e-02 1.0630808775608691e-01
      3.1172545645131805e-01 1.2021336407218974e-01
      8.4783959424251015e-02 1.3805140711968647e-01
      1.8250531689650262e-01 5.3678888330532873e-02
      2.2493836304935128e-01 9.5749571218333426e-02
      -1.6770034437537970e-01 2.0262212433943083e-01
      -1.2238453709220790e-01 -5.8154743525197464e-02
      -3.8601874945074832e-02 2.3320296839200952e-01
      1.7565184118374391e-01 -1.7123134209038521e-02
      -1.3618275619445327e-01 7.6063130585589764e-02
      1.4358942774202871e-02 2.9990151465961165e-02
      2.1494864094413844e-03 2.3170697346367702e-01
      6.1097021929818807e-02 -2.1625897590129350e-01
      1.8342347529610096e-03 1.1263785177610923e-01
      2.4826423659563582e-01 -1.6813185433120417e-01
      2.0631016870323127e-01 8.3588501729427264e-02
      9.6305494544468254e-02 -8.2847337582799330e-02
      -1.0077309897476197e-01 -5.8691838336662132e-02
      8.2792651549572674e-02 6.5659044884329179e-02
      -1.1441328496909001e-01 8.0704489853090797e-02
      -2.5519770494023208e-01 1.4877035660957294e-01
      -3.0184209256860112e-01 -1.4441694651666792e-01
      -2.3714835926238559e-01 -9.7728389035274549e-03
      1.9816558220003354e-02 -5.2063737050820333e-02
      7.7382095680667312e-02 9.9228853551295293e-02
      -3.3853719838343932e-03 -9.2175548681513980e-02
      -2.1122446566154258e-02 7.7417034405060467e-02
      1.4003160307546550e-01 7.9896675354916513e-02
      -1.7395922748594686e-01 3.4873258227259827e-03
      -1.4988842370881972e-01 -1.2091935550968459e-01
      -1.2094144256982072e-02 2.5450795855821235e-02
      -1.4325700930130947e-01 -2.1817948545788274e-01
      -1.8372007420989700e-01 -1.0666141224937298e-01
      8.8966266861426585e-02 1.5699879556173980e-03
      5.4784123215297319e-02 -1.4743876368560555e-01
      3.2040150154751333e-02 -1.8326126052820635e-01
      -2.7020897277200745e-01 1.7476576507690827e-01
      -6.7480370727732650e-02 3.6110049903600933e-01
      1.0409140968806464e-01 2.3221448323030050e-01
      -3.4398347043995986e-01 -1.3953916121217907e-01
      -2.3452360180801751e-02 1.2733884414888963e-01
      -9.7413038675168203e-03 -1.0224805637209358e-01
      -3.4091112453463324e-01 6.4711313532225784e-02
      -3.8640017167241014e-01 3.4667976628282365e-01
      -8.6502850374482562e-02 -1.0932092761860619e-01
      8.0305512692112682e-02 7.0326790139276146e-02
      1.5882947293269195e-02 -1.3908654597045580e-01
      -3.2519121722899350e-02 -1.1449538348227954e-01
      -5.0768152698458066e-02 9.0296738786759354e-02
      -6.7689659830673585e-02 -2.8366207926473035e-02
      -1.1306194263785112e-02 -5.0065601701317443e-02
      -3.9411052260147572e-02 -5.0200118164718442e-02
      1.4636922105432396e-01 -2.5080981883497052e-02
      -2.0951168260273687e-02 9.1538545666792745e-02
      7.0694005396730241e-03 2.9999304487435499e-02
      1.6149809564998691e-02 3.4300518801225519e-02
      -4.7013175072987246e-02 -1.0666295654557947e-02
      -4.1493940519698484e-03 1.7486894495142350e-03
      5.7268981293289160e-02 -4.1969317995610315e-02
      -4.0063032920167593e-02 1.9764619844198073e-02
      8.2749087221658697e-03 8.9770641817196267e-02
      4.2028569502895248e-02 1.0020754831507914e-02
      -3.6232932073926333e-02 -1.1916673020373801e-02
      5.3339137400854351e-02 -1.2775098477648773e-02
      -1.9952188204156406e-02 -3.2246789513387754e-02
      -1.6778066440772501e-03 1.2254992803301128e-01
      -6.7319361552082485e-02 2.6388211396599671e-02
      8.5574833872802777e-02 4.4339614138123623e-02
      4.0194099174221828e-02 -8.5933428424105396e-02
      6.7527108937744679e-03 -2.8701874223390333e-02
      5.9220957339004038e-02 1.1460820200119671e-02
      -7.8644512055033255e-02 -6.9312625446683665e-02
      5.4007989855424175e-02 -3.5490770813512401e-02
      1.4256139639492736e-02 -8.5658347690991010e-02
      2.7893838654219232e-02 -5.9898103805472433e-02
      3.1259697911544503e-02 -2.6262420589375040e-02
      9.4859885095297386e-02 6.1917013167317951e-02
      -8.5391341833872494e-02 4.1768198652239401e-02
      -8.0787700136357374e-02 -4.9320214913732965e-02
      1.0807667762639908e-01 -4.9241249003725673e-02
      -1.9545692831074012e-02 8.5569268575003913e-03
      1.1495576786353892e-01 -6.9310681090371260e-03
      1.7150898058717320e-02 3.1045675705567054e-02
      1.0204580646487643e-01 -5.1776876805497307e-02
      3.9607832991379932e-02 5.6901727921533946e-02
      -2.0335988398579245e-02 2.0354656246935117e-02
      -1.0112465890487197e-02 -1.0036739361505521e-01
      -4.0463922062655790e-02 1.6459387536420157e-02
      -8.5671118600744084e-02 1.3698054269506066e-02
      -4.6549292889300292e-02 -4.0091701479748360e-02
      3.8132540608155074e-02 5.9413668374756132e-03
      1.2100610979801839e-01 9.2979862211209482e-04
      -2.6197651240460428e-02 2.5360548849657077e-02
      -2.8925805550562459e-02 3.6483439132351213e-02
      -4.8419293963168275e-03 1.0853339137262465e-01
      -4.2446564386208960e-02 3.7160324716025095e-04
      -1.0309934768332241e-01 3.9693161172409688e-02
      -2.5608867182213374e-01 1.1840677463282330e-01
      1.3859094871498132e-01 -3.2991856834082844e-02
      1.0485750038962152e-01 -1.5548408640924022e-02
      -6.1349174537626915e-02 3.5235968856826796e-02
      2.0085430052839026e-01 -1.5465797041551016e-01
      -3.5549320261361228e-01 -7.2297762723144435e-02
      -1.4265261736077153e-01 1.4218767344005834e-01
      9.5605717703931337e-02 -4.3837504865397121e-02
      -1.0756282443262236e-01 8.5404272290059355e-02
      3.2587263223018845e-02 -5.7290514996090600e-02
      4.0656257468589162e-02 -4.7787144168126731e-02
      -1.6194676774227199e-01 -3.2554313854061386e-02
      1.8934493759302867e-01 6.6026161955840462e-02
      2.6416598420904164e-01 -2.1705066539302778e-01
      -9.8111749897142699e-04 1.5794279080164345e-01
      -1.3367210433947155e-01 -2.5554160493029721e-01
      -3.6861409501374363e-02 3.7525037659709749e-03
      -1.6239296886836248e-03 6.2814112189064335e-03
      1.9947448559247283e-01 1.5744770908340511e-01
      -3.1810034572466082e-02 1.2538357035572686e-01
      1.7113261593139575e-01 3.4422100935814798e-02
      9.0276380282739002e-02 -3.7794016899228768e-02
      -3.1864537089004677e-02 -9.0757714233631132e-02
      2.9211986681609951e-02 1.1130494475737589e-01
      -7.0897934445907237e-02 1.4646066792604875e-01
      2.0953010847195755e-01 -3.1917347679212488e-01
      1.0765343316659408e-01 4.6934968101013386e-02
      3.7544459318287988e-02 -3.1894027003624537e-02
      -5.9804537910135326e-02 -1.9176984795540031e-01
      6.7045252755258231e-02 -1.1823881171015399e-02
      -1.1803341713335962e-01 -1.3545215377039788e-01
      2.8719839500126958e-02 2.8445992905189021e-02
      6.2147135379680765e-02 2.1989962645985459e-01
      1.3242211236022580e-01 -4.5838736407052563e-02
      4.2490001358652212e-02 4.2601382573358028e-02
      -6.0955758566215448e-02 1.4728607340602827e-03
      2.3499167683492809e-02 -1.6372499865256354e-01
      -1.7792091700861759e-01 -5.8933393112043528e-02
      -6.1627823718510388e-02 -5.1447959996862205e-02
      1.2725215734414019e-01 -2.8045602548817694e-01
      5.0215177470780144e-02 2.4885348868256987e-01
      -8.1155584595909297e-02 -1.1326999011712451e-01
      -1.7105954227775763e-01 6.9053972007345768e-02
      3.9767376055838875e-02 -7.9285034124206177e-02
      -6.9363946531509402e-02 9.7546097577571184e-03
      -4.3989735125214653e-02 4.0993702799671523e-02
      5.8615305308812128e-02 -2.9182833367183650e-02
      -1.0524430481136784e-01 2.6323527846534811e-01
      -8.6267253604935548e-02 -9.3749898929412004e-02
      4.0608022857767427e-02 1.8384977585164226e-02
      2.1590336496752113e-02 9.4031663038371734e-03
      -2.5549594985197852e-02 1.2270273975756184e-01
      -7.9013535553250608e-02 3.8497220993814169e-02
      -5.7281787755871713e-02 9.1816759288099320e-02
      5.3341656467833259e-02 -6.5003509090276024e-02
      2.9756917172105955e-02 -1.7379000420853338e-01
      -1.4269896858792866e-01 9.3185505695679974e-02
      9.0413206351051045e-02 5.7913159025471943e-02
      8.9770549435080615e-03 5.0081746073692458e-02
      1.4796047002303922e-01 5.3462849377561390e-03
      3.1184911137549485e-02 1.4040282542485329e-02
      5.1625862855092129e-03 -2.2326263130229656e-02
      2.0731026967155026e-02 2.2809994157906528e-02
      3.8065955003471638e-02 -6.5428753834085210e-02
      -2.2816137038423695e-02 1.5104431575799942e-02
      -9.1147516146893079e-02 -1.6734989756597154e-01
      -9.0666589932112004e-02 -1.4180923021980801e-01
      1.3797888078574977e-01 -5.9109854384536496e-02
      -3.9081833808342480e-02 -7.4651797179436458e-02
      -8.3751723389396890e-02 5.9509650649898084e-02
      8.5101034408916684e-02 8.8894485051241277e-03
      -1.3589796583311262e-01 5.8300612191703571e-02
      -1.2060764379878194e-01 5.7244875186604335e-03
      5.2605695553567360e-02 -3.5551476881081498e-02
      -5.9890459079344129e-02 -1.5562332997053113e-01
      2.6516762919275714e-02 -7.1404953644026450e-02
      8.0441975908724497e-02 4.2045764932484943e-02
      1.3039933709923764e-02 -1.9294657657210199e-02
      7.4808043356585238e-02 -8.8118396868199375e-02
      -8.2654101994849398e-03 -2.9065568941723151e-02
      7.4084153243390771e-03 -1.8977861205595345e-02
      1.9223059971490209e-03 -2.5070605023985875e-02
      -3.0568762196213378e-02 5.9690910522747324e-02
      -2.0087940506322077e-02 5.4191778373058795e-02
      4.9483339195679585e-02 -6.9483592540791464e-02
      -5.8914153246377249e-02 -7.7396851449369322e-02
      5.4030490493748667e-02 7.8133538600840852e-02
      -4.1180259532223124e-02 3.6948978496021960e-02
      -6.0888837377001466e-02 -3.1140279724002122e-02
      -5.0672584408261723e-02 1.2962531256096355e-01
      -6.4906155648134008e-03 1.0608352853591721e-01
      -7.8318997655126274e-02 1.1426302847880085e-01
      -4.6244154164497522e-02 -3.6490586897101107e-02
      -4.5292733142422624e-02 2.0306074290537304e-01
      2.7795028515067688e-03 1.0947772201058743e-01
      1.4622130641208500e-01 2.2665258352929391e-02
      5.0355505394351040e-02 -1.8980217951085962e-01
      -2.2176910198243543e-01 -7.0840566716039175e-03
      -1.1732013834399239e-01 -1.8297447652553426e-02
      1.3839461705633291e-01 3.2289690867151964e-02
      -1.5604881644240509e-01 9.9664692554036510e-02
      5.7186028067196415e-02 2.5360942853035623e-01
      1.1366860965291509e-01 1.1318140361501593e-01
      -1.5351036387384326e-01 -1.2858955890715768e-01
      -6.0537615866771893e-02 -1.0023212462477289e-01
      3.0243331547619202e-02 -3.1773033977044621e-03
      -6.6800999995742349e-02 2.5525034262194324e-01
      2.0051444666913751e-01 2.3004368008894141e-01
      1.7272444587990995e-01 6.5296126442657101e-02
      -1.2819079776279071e-01 -1.9801171605946855e-01
      -1.5096343174017052e-01 -1.8752052938842446e-02
      -1.0449737661202181e-01 1.3234391549533564e-01
      7.9239972563545660e-02 -2.9220978915765153e-02
      1.2281569834500515e-01 -1.0344203154352580e-01
      -2.1719705214660090e-01 1.0291383834592374e-01
      -9.4110648151621193e-02 2.5052164843494040e-02
      1.6248565503224102e-01 -1.5813515020669797e-01
      1.0576242223902289e-01 -2.4445381914633491e-01
      6.0713294570452277e-02 1.6136171607250757e-01
      1.7822304022550084e-01 1.9541508160367557e-01
      -2.5066223490027729e-02 1.6812137790184523e-01
      9.3533838530666796e-02 7.0161505525387621e-02
      6.6792763605683536e-02 -6.0006371660587289e-02
      -2.8138327209644964e-01 3.6094908748648818e-02
      -7.7652651797559077e-02 6.3885487828172799e-02
      7.8706053583551511e-02 -2.3367256726116725e-01
      1.2673677880656181e-01 9.5134705646786930e-02
      2.3691508697082544e-02 -4.8512321829426110e-04
      5.2967515515782951e-02 -7.0949285353576488e-02
      2.6805046340943866e-02 -1.0776200925723747e-02
      2.5595330481715844e-01 -5.1533366354694014e-02
      3.7002136029178470e-02 1.1236183578051175e-01
      1.3158194213543564e-01 3.1359266900035376e-02
      3.2067102450201107e-01 1.2413054971521700e-01
      1.6173912510049929e-01 -5.2529749495955708e-02
      9.8380380147241098e-02 3.6229053099015640e-02
      -2.5795829610605453e-01 -2.0874667655944212e-01
      -4.7980119295639403e-02 -5.0649823781089773e-02
      -1.0682228490643052e-01 -1.3430510793713960e-01
      -1.6888887773003614e-01 -3.0822644118344970e-03
      8.4358681273315431e-02 -1.4801500337383916e-01
      -2.6759880707908312e-02 1.0425967514698020e-01
      1.5944659050258356e-01 -4.9408581728535371e-02
      2.0179475219388632e-01 -4.7605961437169428e-02
      3.1255484518164871e-03 2.7916777435063089e-01
      -2.6882039238477784e-01 -7.2773083336024641e-02
      -1.0299036478195078e-01 9.7009928028740602e-02
      -4.3494375151592171e-02 -1.0758748879177010e-01
      -8.5832185187962137e-02 6.2954352511296460e-03
      1.2938041789744399e-02 5.6155521749380044e-02
      -5.4178416224648508e-02 -1.4829835679726480e-01
      -9.5740917211850574e-02 -5.8761106972764696e-02
      5.9247229540468932e-02 1.0989572227392182e-01
      2.8049442025638516e-02 1.8997346803573489e-01
      1.4298379385361296e-01 1.0447824695934964e-02
      -2.4501181328021293e-01 -2.1125163835617916e-01
      1.8991582440877108e-01 2.0475556647910946e-02
      -1.3373526968146471e-01 -2.0994439043298591e-01
      -1.6041196880890399e-01 -2.7496717329234973e-02
      1.7339402050279068e-01 7.8486817388348312e-02
      -7.0472349899139766e-03 -3.3036375500074436e-03
      -6.5990420591697602e-02 -1.0890998342878024e-01
      9.8196564811818945e-02 -1.2022359287388104e-01
      1.5426014072033489e-01 -1.1993837035263705e-01
      1.3036928761847841e-01 8.2644302313894150e-02
      3.1219205839922298e-01 1.3294629883121481e-01
      2.5017158004072913e-02 2.8803472418429876e-01
      -1.5519700050668306e-01 1.7140323800661963e-01
      3.3622998827445516e-01 3.8804322304756493e-02
      -1.2813575515974071e-01 -2.7257055136122289e-02
      -8.5311524686366838e-02 -1.0894993770762393e-01
      -1.3379012311978464e-01 8.2731566863511793e-03
      1.5315908088058905e-01 -9.9957160155960669e-04
      -1.0003794438019766e-02 7.2467032942924489e-02
      -7.8393748188429369e-02 1.1615983350286886e-01
      1.1235110451302442e-01 6.7314296190844780e-02
      1.7679487293329682e-01 1.0449383152378648e-01
      -6.1645773801219009e-02 2.4096374133734569e-01
      -1.2573999804719976e-01 -5.7402964764911683e-03
      -1.3578493628001143e-01 -6.0910507223923820e-02
      -2.4476555879872353e-01 2.1468066444356827e-02
      2.7985514404781114e-01 -1.2086533044397620e-01
      -1.1484058006717444e-01 4.8614384555448510e-02
      1.3387535598061060e-02 -8.1523353540224427e-02
      -1.9577290807300360e-01 3.9161808131729946e-02
      7.3654800943449422e-02 1.2178455457277716e-01
      2.4584756902052554e-01 5.2621679290900815e-02
      -1.4243423877395464e-01 -1.0684972049300370e-01
      2.2481298756917023e-01 6.5277976404751498e-02
      2.2528753353733030e-01 1.2273585699639671e-01
      2.1679426832236842e-01 6.2433290954234208e-02
      2.9697666764926289e-01 -1.1539606852922557e-01
      -2.2205083610395884e-01 2.2354710878903825e-01
      9.8639094967175513e-03 2.1025082000776057e-02
      -1.6902665382448273e-01 -6.6591297371919697e-02
      3.1616417010958578e-03 -4.1592358381243758e-04
      -5.3666356146733700e-02 7.3364694001859755e-03
      2.9416324097992753e-02 1.5990409503412925e-01
      9.2648546533784085e-02 5.1862077164598439e-02
      -8.2251195051787865e-02 6.1848026472615888e-04
      2.9104011126363172e-02 -1.6158827437083589e-01
      1.7371627749683144e-01 -4.4164601135002551e-01
      3.9474413414457600e-02 1.0836869011036031e-01
      5.5506309962906356e-02 -3.7941340698704008e-02
      -1.4218728507362846e-01 6.4500126518295571e-03
      1.1898748833758499e-01 2.5776979067371997e-01
      3.2248093169132275e-01 3.2793924119908342e-02
      2.9965279771281987e-02 -1.5480215143305376e-01
      -1.4811470558253897e-01 -1.7488611766901185e-01
      1.3539448184439368e-01 -1.9202123625418770e-02
      2.5398814722086360e-01 -2.2331202250070778e-01
      -1.7254581451039162e-02 2.7934801442237096e-02
      -4.0653884109376515e-01 -5.3583487647861101e-03
      -1.0061423656430969e-01 1.1912507957766329e-01
      1.2996386646268493e-01 -2.0477918120005284e-01
      3.7690408058767375e-02 7.2760382995724487e-02
      3.8477092977887745e-01 3.2002918495246679e-01
      -6.8964243465574060e-02 3.1418866924383629e-02
      2.2732053439215819e-01 8.6500319792421732e-02
      -2.5156503701455091e-01 1.5361640760508988e-01
      -2.5713373006212387e-01 3.1586815410262226e-01
      -1.0991321940999456e-02 -1.2909311968381137e-01
      4.6526801620571004e-02 2.5674806505164471e-01
      -1.2084913632137174e-01 4.5077232798171329e-01
      9.2815088996609681e-03 -1.7231170506364757e-01
      -3.6374833101183043e-02 -1.0235390324380128e-01
      -4.6573894504257307e-02 4.3906353536476567e-01
      -1.8858504279530430e-01 2.5748080451427874e-01
      -9.5232245935990542e-02 3.4703094780760171e-03
      2.1419442646327497e-01 -3.0469877125180642e-03
      -1.8952480228086199e-01 5.8516059835230262e-02
      2.2844052732464071e-01 2.4280498200426495e-01
      3.6962686436280057e-01 -3.4813422461200388e-01
      -3.2439718597200115e-02 -3.1944323832228388e-01
      -2.8297179553946383e-01 1.2114412969232199e-01
      2.2240996274281155e-01 -5.1651980150080268e-02
      -8.6108469573217578e-02 3.3234990773474121e-01
      3.4539310453594547e-02 2.2512930979128723e-01
      -2.0476051817149754e-01 2.0720718188286177e-01
      -3.5169075580766984e-02 2.2693403386322145e-01
      -8.6432435083988152e-02 -2.5182874415301737e-01
      -1.5807014935411950e-01 1.7669632619015291e-01
      2.3834684097004039e-01 -2.9514371372727116e-01
      -1.6765713599797616e-01 9.4653499929515550e-02
      5.8162548988722917e-02 1.7207339081796427e-01
      -8.1952217379987535e-02 -3.6872963650337522e-02
      1.0554621763420065e-02 1.5959122842024256e-01
      -1.3281101228906297e-01 2.0072202824649962e-01
      2.2588110008104559e-01 2.0245254855454597e-01
      -2.6292694058446703e-01 1.7755789864166985e-01
      2.4936343503359798e-01 1.6094911149519062e-01
      -1.0190278743398000e-01 1.1732021554108449e-02
      2.3182741886091596e-02 -1.9461942784149373e-02
      1.4970138664847679e-01 2.0264082169925215e-01
      -7.1831051177953339e-02 1.7885136312138064e-01
      6.6199742023912461e-02 2.6468905589368807e-01
      1.1391205488655111e-01 -7.7396126162649695e-02
      -1.0422379336594145e-01 -1.0375806052452380e-01
      -8.7376295179788052e-02 6.2056242431899444e-02
      4.7463189350656479e-02 -4.7957000617006203e-02
      2.8293606544788547e-02 -2.8440119300748985e-02
      1.9549254614942455e-01 2.4324674436687788e-02
      -1.5764812899983244e-01 8.3168030907019172e-02
      -1.6461518154471083e-02 -6.9743802886544234e-02
      1.2368652833280225e-02 1.4619594524595478e-01
      -7.3533545032185232e-02 3.6161025265787669e-02
      8.8707114737120313e-02 -6.1599061226718814e-02
      3.4592462195429374e-01 -6.6516768526756476e-02
      -5.0734076765793265e-02 -5.6753116300674422e-02
      7.7735918266287285e-02 2.6481608320106892e-03
      -4.9506038982368272e-02 3.8598917781444975e-02
      2.2967562476179145e-02 2.3222983486643958e-01
      -2.2584720575814735e-01 -3.2863239227765628e-02
      -1.4427469049235225e-01 1.0913665083047655e-01
      7.7994225484907323e-02 -3.7942954969976919e-02
      -2.3219843115118120e-02 2.2970802377026842e-02
      6.0887389284041075e-02 7.3855731198228927e-02
      -2.1068513610174350e-01 -9.7760265336020336e-02
      1.6404066678118520e-01 1.8826510209227185e-01
      7.1441349589116285e-02 -2.8893497676292090e-01
      -1.2768238810267804e-01 -9.3381438036606770e-02
      3.0411458692595313e-02 9.9307907015265540e-02
      1.6400561698654070e-01 -2.0977198872375952e-01
      -1.1905261513868844e-01 -5.1244172943701420e-02
      1.4641605293207119e-02 9.3157908512104589e-03
      2.2144549960551329e-02 -4.3811476133815738e-02
      2.8926870420031670e-01 2.3172067050095463e-01
      -1.0415887133485532e-01 3.7721398524797972e-01
      -1.0164467016631747e-01 1.6114539808712657e-02
      1.5798078487637771e-02 -1.1385736182282215e-01
      1.6968133829402529e-01 3.4866967215201528e-01
      -1.9547472138016123e-01 1.4687360379060929e-01
      -6.6481623559160472e-02 8.4430447618433505e-02
      -8.5133946632798357e-02 -1.7588341218387704e-01
      5.0571277584861442e-02 -2.5965599014276142e-01
      -1.8850433195243671e-01 -6.3056505453430833e-02
      -1.5126314611930619e-01 4.1159771229382365e-02
      2.8577323784749331e-01 1.1781944405488744e-01
      1.0750131514791376e-01 4.6213348436621442e-02
      -2.5568261967141785e-02 -9.6908106462551061e-02
      2.3401825317380349e-02 9.2041566582599058e-02
      3.3923134479607042e-02 -1.0846438231493565e-01
      -2.9440004251712951e-02 1.0846650596497329e-01
      3.6171562331174523e-02 6.8548424313375810e-03
      -8.3482688186672111e-03 9.3264967995480258e-02
      2.3197414493826010e-01 -2.0238037494837602e-02
      9.1753526740668293e-02 -1.7781260858748388e-02
      -4.6171179787833777e-02 3.6073495901556993e-02
      -5.3467073603916351e-02 2.6530200328068865e-01
      -1.4448247914299173e-01 -4.9459722408928215e-02
      1.4699236251543743e-02 3.0470106040275960e-02
      -1.3904866080241246e-02 6.5632177577341230e-02
      -8.5672091988110918e-02 9.5759472842987983e-02
      -3.7431254691513337e-02 1.1495579099874050e-01
      5.2103578206212302e-02 -7.0198613165032869e-02
      1.7901046464536862e-03 1.5192980930363928e-02
      5.6849166637534775e-03 -8.4915121503285104e-02
      8.8370101120127720e-02 1.2940597533412668e-01
      3.6927719150506723e-02 -2.4066142202556162e-01
      -2.3804787610698977e-03 1.0783893491498724e-01
      -1.3022711303059636e-01 4.8409269305577193e-02
      -2.2345823137187453e-02 -2.8753429025758323e-02
      3.6104867452018331e-02 1.2092469337596590e-01
      4.3108726380576341e-02 -3.9417065538805439e-02
      -4.1926367667304745e-02 -5.3418954252983111e-02
      -2.5809515574979274e-02 1.1493785719385359e-01
      -4.4477744926513137e-02 8.5051230705315145e-02
      1.4009238360486734e-01 9.3285621746944884e-03
      -8.4726671310958304e-02 3.4873883507770688e-02
      3.9054814195097778e-02 -6.7684603357125533e-02
      -1.5537438118753702e-01 -4.9194940316467296e-02
      7.4843893395965116e-02 1.0850023347530915e-01
      7.7492778954664610e-02 -9.7310301894833015e-02
      4.9907944488304747e-02 -3.9478117338418058e-02
      3.8770044545534461e-02 1.0094263385358453e-02
      -1.3183051813572736e-02 2.8409680307174497e-02
      -1.3054119527028690e-01 1.0279894778985164e-01
      6.7967591934412874e-02 6.2652155488082339e-02
      1.5633345365202202e-02 1.7269256088860083e-02
      1.7667582810156193e-01 5.3840950943621402e-02
      4.1435544800435958e-02 -1.1336645124195648e-01
      -4.4781906325423476e-02 2.0374805047124699e-02
      5.4792612226775457e-02 1.1425629044570847e-01
      1.0057000313399253e-01 1.3146950761546708e-01
      -5.9781426255785794e-02 7.1580130280377616e-02
      -6.3127052979142081e-03 -3.3455306060242343e-02
      -1.4669766817415955e-01 -8.6196462370202481e-02
      -1.0447993899955710e-01 -6.4341652015223003e-02
      -8.9699066412906758e-02 2.0641260359592541e-02
      -1.2071136310512925e-01 -1.7907385641846411e-02
      -5.0437238012949685e-02 1.1379115226572764e-01
      3.5925824000139633e-02 -4.9693754616087604e-02
      5.2702582759038786e-03 2.3592050893397314e-02
      4.8915305618317959e-02 -1.0121151051097796e-01
      1.1304153599258515e-02 -2.8609374220598647e-02
      -4.6930744001439074e-02 -2.1326236129535232e-03
      5.8573632228044119e-02 -7.4637118751478992e-02
      -1.4815098026817577e-01 4.9251893643293618e-02
      -5.2242020405051985e-02 3.6088218363819750e-02
      -7.7101672730299539e-02 -4.8117414355833929e-02
      -6.9561218812348766e-02 -1.9258438750110112e-02
      -3.1426881552105018e-02 8.4711560222624466e-02
      1.2720645204995749e-03 7.8480209694309300e-02
      5.5582921875542051e-03 2.4431127466060902e-02
      1.2003576497848452e-01 1.6109192072098100e-02
      1.0596872540670982e-01 7.2541334040088475e-03
      -1.7751582138918270e-03 -1.7851389803957753e-02
      -7.5248793660899496e-02 2.5020331199964805e-02
      5.4026744983749472e-02 3.6040736560154414e-03
      -3.2672384907637408e-02 3.3363580577234074e-03
      -4.0991913044795714e-02 3.2440337164571370e-02
      3.9480422480742031e-02 7.3010538029077213e-02
      -1.5663486992613985e-02 -3.5215484164420351e-02
      -4.3434754908420928e-02 -1.0304011660426109e-01
      3.0114557516555347e-02 9.7432381592841844e-02
      -6.4066546213380230e-03 -2.1735592384787748e-02
      -7.1299326645398883e-02 1.4854794321645453e-02
      -3.5739948051241956e-02 1.4745002352869790e-01
      -8.5349260720078785e-02 1.2044006537559727e-01
      -9.7552038232078683e-02 -1.6118573706197323e-02
      -7.2697645896100074e-02 -4.8576905476828032e-02
      2.8923645081686045e-02 -5.4793398241837182e-02
      -5.2098873895350456e-03 -4.4001333629095349e-02
      -6.7375850098387952e-02 1.6662389167597831e-02
      1.2260226065008982e-02 8.1604404607482389e-02
      6.7774429305556836e-03 1.2214095585483767e-01
      -1.4208974266373325e-01 6.9500083195119924e-02
      -1.0515333827148071e-01 -8.7281051712071414e-02
      2.1127987769643742e-02 -1.5835548053729254e-01
      2.3558467827435169e-02 2.6140656089982148e-02
      1.9916390445274207e-03 5.1149063010532342e-03
      1.4970393140621049e-01 -1.1469320800756985e-01
      7.8426866477749449e-02 8.5395329641643012e-03
      -8.1139992546129219e-02 6.7235283751789970e-02
      -4.4588011875563126e-02 -1.4211620880074968e-03
      -6.7172907691544381e-02 -6.4440518574174918e-02
      -2.0905939041864236e-02 -5.3190417243487442e-02
      6.7364353406060007e-02 5.4917536819691646e-03
      6.3887763244914802e-03 -8.6701487253289262e-03
      -2.6650224794167978e-02 -7.0288043501757880e-02
      3.8176728089233799e-03 -4.3606966903795737e-02
      -1.1519802577469812e-01 5.9566433861917178e-02
      -2.2875596977095101e-02 -5.8313313170087387e-02
      5.3181854661762298e-02 -7.7374794938814107e-02
      -8.4758364860763769e-02 5.1295681534727536e-02
      -1.2716629380264485e-01 -4.7603788442449391e-02
      -8.1535188377149251e-02 -1.6340995814048326e-02
      -5.5894639789339767e-03 1.7489967141727507e-02
      -2.9812944768299605e-02 -1.0335679155615762e-02
      -1.3264825885307696e-01 6.3313073324385655e-02
      1.4960587185217078e-01 -2.4633529996540657e-02
      7.0079718282869713e-02 -3.2277324572763423e-02
      2.2286697303958318e-02 6.4224279540108745e-02
      2.1761186517289473e-02 -5.3354600006503800e-02
      2.2468532429037530e-01 1.4999319132472336e-01
      -4.2318066974493217e-02 -1.9296946459889098e-02
      -6.0130249473494199e-02 -7.5505466091007967e-03
      1.2221750881947323e-01 -1.2121881180795352e-01
      -6.4383805925385104e-02 2.1043420559359174e-01
      -4.7945108642741367e-02 -1.1557154655986795e-01
      2.1433436618784849e-01 9.2487151883481084e-02
      1.1846558880108254e-01 -9.4251768346238607e-02
      -6.0072480284067913e-02 1.8316098833956771e-02
      -7.6130021296644215e-02 -2.8984372716839946e-02
      -8.4797913862829116e-02 -4.8830212468755886e-02
      2.8515899945139762e-02 -5.5689858520851399e-02
      1.3048814232270712e-03 -7.3501257867149644e-02
      -1.1417820179824030e-01 1.4001580715337147e-02
      6.4363145940126210e-02 -3.8509750679251928e-02
      6.9609388777601575e-02 9.1712061631507344e-02
      -1.2183194818989425e-01 9.9453098080711885e-02
      -1.1968820693258429e-01 -7.7457164526234551e-02
      9.1042590111238442e-02 -9.4604157005206288e-02
      -6.5698795060759874e-02 -6.0844434052523828e-02
      6.8926778362885105e-02 -9.3516762517835694e-02
      -7.4246987059665773e-03 2.5315189216255550e-02
      1.0172794004176458e-01 -1.3471788392269160e-01
      2.2734677007710424e-02 2.7528463044635420e-02
      -9.5599393743098879e-02 2.7176610909189602e-02
      -1.2176540122981404e-01 4.1340274923136321e-02
      -7.8596385849195260e-02 6.2142229910182922e-02
      -6.3848881871977445e-02 -3.0979131265909652e-02
      7.0468429031068870e-04 -1.2672657203138007e-01
      -9.1391585982952189e-02 -1.7664693506421268e-02
      7.9830353198763152e-02 -3.5692844507615180e-02
      4.2595413164146743e-02 4.8993223838559648e-02
      -6.3542544538635415e-03 1.7574719424694332e-01
      1.5041523986633507e-02 9.2165549715841483e-02
      1.3357437297282015e-01 2.1116120521955096e-02
      2.9236735736071433e-02 -9.7520365901635112e-02
      7.8221842317648629e-02 7.9425077878655340e-02
      9.3356003762595674e-02 -1.1400482283558827e-01
      4.8389224070537369e-02 1.1088149430892098e-01
      2.2602688075297889e-02 1.2282183794717726e-01
      1.9879186013099615e-02 6.1559630811874627e-02
      5.3866966872882220e-02 -6.3091082570642124e-02
      1.1306216014219682e-02 -1.9313942119075223e-02
      2.2020297346945210e-02 -1.3534118331228468e-02
      -1.4075953162337521e-01 1.7339035803599628e-01
      -3.0037226325250699e-01 -6.9966563085605477e-02
      -5.2222825043792789e-02 -1.2270301001138728e-01
      -3.4108713192023236e-02 -1.9565028130651110e-02
      -7.8966639864781266e-02 -1.1384140142226329e-01
      -1.3828946500887293e-02 7.5628526797390391e-02
      1.6256544617457308e-01 -8.7955760492015589e-02
      -1.4664752336286729e-01 -3.6150476001448814e-02
      -8.0107318881782602e-02 5.3957836839888355e-03
      -1.0188621345492413e-01 -7.9979884744135837e-02
      1.2501736582089676e-01 -1.7006741270968018e-01
      9.3984748184392328e-02 2.4348445706956559e-01
      -4.6846290233870928e-02 -8.3650943840467995e-05
      -5.5754274462601137e-02 3.6116674399794581e-03
      -1.9755904843599961e-01 -7.0386987445242896e-02
      8.9340634865229238e-02 -5.3126398457209130e-02
      1.5919755402010065e-02 -4.0776817302477668e-02
      7.7944102036197713e-02 -7.8386075332983932e-02
      -6.9897302026078245e-02 5.1863747692215606e-02
      1.4232384545554208e-01 -5.9923074416352116e-03
      -6.5518938381338890e-02 8.1543730172798493e-02
      7.6299625877687738e-02 -4.7387522477771414e-02
      -2.4280341547802251e-01 -8.3259312616902059e-02
      -6.9337970839361107e-02 1.1993434923267952e-01
      -1.1727255950505838e-01 -1.1261836692574009e-01
      1.4462185697201688e-02 -3.0128976552951180e-02
      1.7768683479973635e-01 -1.1160641252571962e-01
      9.7878828114153216e-02 -1.7284151224484054e-02
      -4.1676741110713688e-03 -3.3226459289355983e-02
      -1.2036821908550845e-02 -1.2975053785265900e-01
      -9.3874306680654454e-03 -2.2248302941453427e-01
      -4.9284652400123717e-02 2.5542655041885342e-03
      -9.8334319477406826e-02 -6.0852598326304359e-02
      9.1570657863466006e-05 -7.5900487514417345e-02
      3.3177893829514804e-02 -1.6088498598141976e-01
      5.3421057072197638e-02 2.2037640457783052e-02
      -4.2732515895442462e-02 -8.5389208289589555e-02
      -7.2262691404817947e-02 -1.0048812664732110e-01
      -3.5825385866408030e-02 -4.7461988098676841e-02
      -2.9750647051661857e-02 -8.8272916745304159e-02
      3.5958898338188654e-02 -1.9858808476691508e-03
      -2.1336926684727398e-03 3.7929550619587880e-02
      -2.4272227705947895e-03 3.4585788500365436e-02
      4.1909628236316152e-02 1.3736071017164839e-01
      1.1281973719397584e-01 -6.2989033656244947e-02
      4.3312009398587467e-02 -6.4106241101282144e-02
      1.0002513114256357e-02 -4.2594111836960241e-02
      1.9174165933276474e-01 6.1506402021894543e-02
      -5.1111967818313113e-02 4.9684687186607360e-02
      -3.0501051138128173e-02 1.5085746974824596e-01
      -5.2389433958359190e-03 9.1477587735106378e-02
      2.3489981208147232e-02 -8.0234439850185565e-02
      -4.3731278602722169e-02 -1.4226917980220358e-01
      -4.5890847769224932e-02 7.2676817432308014e-02
      -3.3541654963093699e-02 9.5846452863742437e-02
      -3.7870248645870733e-03 -1.0938741435099771e-01
      -7.1890814198460731e-02 -2.3943494025557510e-02
      -1.5095148212559186e-02 -1.6317736532615004e-02
      8.6871224172804601e-02 4.3963456392412722e-03
      -3.8459646360704584e-02 -1.6186422423990336e-03
      1.3996205642776101e-02 8.5426427507573014e-03
      -9.1164234722163368e-02 1.4284719785670172e-01
      -4.7101649572570028e-02 -3.2917751045691279e-02
      4.8296330963944811e-02 -4.6163574492329197e-02
      5.7160940292851389e-02 1.0781567502627309e-01
      7.3555911984405670e-02 1.7463277317950171e-01
      -1.5611607041297418e-02 -1.5374203298763815e-02
      -5.7439371502040072e-02 6.7173122166630364e-02
      -2.5053052596249022e-02 -2.2234829301267439e-02
      -3.2322002461151307e-02 1.9501119503140447e-02
      1.3535766076777048e-01 -7.6527923763816494e-02
      1.1779812654074873e-01 -7.3945024904200324e-02
      -2.7094580439678391e-02 -2.7325490742501377e-02
      -3.1846802489198134e-02 -7.1777021752631079e-02
      9.8927671478066637e-02 -1.4788522952879252e-01
      -7.1533237389771465e-02 -2.9078015370016728e-02
      -4.2854154130903425e-02 7.5120201975035980e-03
      7.6919162829170893e-04 -4.8716441411886170e-02
      5.4651124477149843e-02 -6.8598980837801166e-02
      -5.9188472676777411e-02 1.5239620612024526e-01
      -4.0521049762843937e-02 -8.3895796069941991e-02
      3.7228782299290337e-02 -1.6497605453353203e-01
      5.6418035608139974e-02 2.4538504355621753e-02
      -3.1047542732352326e-02 1.2456875012131580e-01
      2.8999820959738111e-03 1.2855257553338374e-02
      -3.5760283630853158e-02 8.8723169933634161e-02
      2.7535612927599325e-02 3.9453946771644342e-02
      9.5723179320470309e-02 6.6103311482676227e-03
      -1.0316872380882394e-01 -1.3173904916925197e-01
      -7.9478011294538881e-02 1.0856213678516458e-01
      -2.3065891690478615e-01 2.2605523325534400e-02
      8.9473749439447331e-02 -1.9542215189027196e-01
      -1.3397239683891579e-01 1.7386942353732596e-03
      1.6493841761706450e-02 -3.6541448020789624e-02
      7.1152301711078128e-02 -1.1601577757923456e-01
      2.6796865230439611e-05 -8.4732584544233824e-02
      2.5946506978694276e-02 -4.2422492685678069e-02
      5.8867474168888614e-02 1.2619585264998130e-02
      -5.5807020559291598e-02 1.4096407983663753e-01
      8.4662022426552630e-02 -6.3004979656820156e-02
      -3.4555516972844723e-02 1.1530697947441991e-02
      -1.5810832266567237e-01 -3.6679721382659257e-02
      -1.1216282751014257e-01 3.3007641231094331e-03
      -2.8291415559466505e-02 6.4689877464899126e-02
      3.4951985978214591e-02 -7.2956761788674912e-02
      1.2147909944469522e-01 3.0729621584354445e-02
      8.5595081187057026e-02 -3.9306420102260133e-02
      4.2676154325261085e-03 6.7672767718688340e-02
      1.1286181245067241e-01 -3.2784773962301591e-03
      9.6035565234091156e-03 1.1099947920987559e-03
      1.1407975321468601e-01 -2.1218411255780733e-02
      1.2029366022552454e-01 9.5388990575309821e-02
      -5.5548930945596139e-02 4.0222808384946490e-02
      8.1601550208864823e-02 6.0042249461980370e-02
      2.8175264605890114e-02 1.2044987679976674e-03
      2.2906858672293074e-02 1.0446937059027109e-01
      -1.0651953692420446e-01 4.6541530079103180e-02
      -1.2005527043991181e-02 -4.9310804141831166e-03
      7.7553295352000465e-02 -3.8938240132346646e-02
      7.9304342746604362e-02 -4.8978897853130469e-02
      2.7710875832379585e-02 -7.4184263034540204e-02
      2.4685563753230260e-02 1.1101563909855350e-01
      -1.2896553578759751e-01 -1.6898317944493424e-01
      -4.9598262542381373e-02 -4.3173564541467979e-02
      9.8180556715960446e-02 -1.0414486859542421e-01
      3.4049749728616650e-02 7.8392677357000690e-03
      2.6045453085285986e-02 5.1643711280071676e-02
      -4.7552585784500195e-02 9.0832976125279102e-02
      -3.7419740710639436e-02 -5.0351959052540543e-02
      6.3423583369205997e-04 -9.4485290792670124e-02
      1.4935510355156239e-02 -4.1792509164679831e-02
      -5.2947887485244330e-02 9.3277602820394712e-02
      -1.5288634076986268e-01 -1.8478732070767448e-01
      8.2311431073919097e-02 -9.7674969220348642e-02
      2.4315075281991640e-02 -1.0990121626060473e-01
      8.4240021554372546e-02 -5.7339038205183081e-03
      9.4106827361287046e-02 1.2540813664426853e-01
      -1.1562516298198262e-01 1.1619699652645134e-01
      -3.0991968075072304e-02 3.6179447152643339e-02
      2.0650304891164067e-02 1.5825087615011814e-02
      -6.8620140954441300e-02 8.2510406270829249e-03
      2.6024884313198504e-01 -8.2094312059318053e-02
      1.1094901637220467e-01 1.6126155620485402e-01
      2.8490346679801788e-02 7.9202408893877974e-02
      1.1210738661822875e-01 1.0780214426072691e-02
      -1.5234311637695130e-01 -1.0154137199772198e-01
      6.2089375150177074e-02 -2.7210240732273027e-02
      -1.1835823120660509e-01 -1.1216284133183597e-01
      -1.3072241093431558e-02 -1.5449276521313574e-01
      5.7898635225007977e-01 3.3844691555369327e-01
      9.0038442856086323e-02 2.2940693680638141e-02
      -4.6415920700204311e-01 6.0589464333194468e-02
      -1.2897001987936785e-01 2.2957871456039969e-01
      4.5819085987737325e-02 7.7840514708819364e-02
      -4.7414052527155692e-02 1.8767284227364761e-01
      -3.2316665595696215e-01 9.2428225275387410e-02
      9.3880304645821547e-02 1.7617818484294312e-01
      1.4815970366164109e-02 -4.5987508353685640e-02
      -4.0080187165051395e-01 -3.7340456002993183e-02
      1.3900999414765852e-01 -1.2325309328604223e-01
      -4.4234397172455309e-02 7.5753550738996173e-02
      -2.3671150299386273e-01 -3.9220308598368621e-02
      1.2077562425784626e-01 -3.1571479944283658e-02
      6.3082109460334088e-02 -4.5110396120307444e-01
      2.6261175254293595e-01 3.0023321911408957e-01
      -6.4505036665118920e-02 -2.6578661961017253e-01
      -1.4594937541940561e-01 -2.8484698781714457e-01
      -1.9633098415921749e-01 -4.8166227286655400e-02
      -2.9472186184877247e-01 -4.0194081803451298e-01
      1.5015469416195310e-01 1.0115150405077823e-01
      -1.6478760053844066e-01 -2.1802395305585091e-02
      -7.5496516408565112e-02 2.4309149928525339e-01
      4.0770192509044378e-01 1.6774023349833290e-02
      5.1410813671913635e-02 -8.6734835018219117e-02
      -1.6209701199685131e-01 4.3337411889277720e-02
      -2.4048153290278237e-01 1.6901648872425504e-01
      -2.3985557523161616e-01 -1.0831862321483469e-01
      1.7102158764962574e-01 -3.3800831056913511e-01
      -5.8185460988268579e-02 -1.8267040170458014e-02
      -5.7353087061448767e-02 -1.5667523046827564e-01
      6.4908757106133461e-02 -2.7160407450389479e-01
      -1.3732264081139117e-01 1.4012420993500929e-01
      -3.5388527277589910e-01 -1.0250437892977997e-01
      2.3540662002342591e-01 9.5304988290523029e-02
      -2.0418254394285042e-02 1.4047977647236500e-02
      2.1989623635665570e-01 5.2706703924378617e-01
      3.2299768330420900e-03 3.8138039675854307e-01
      1.0725324466343229e-01 -6.4655912443340374e-02
      -2.6331116458044435e-01 4.8927073028406659e-01
      -1.9590548934633073e-01 -2.4143231598276882e-01
      2.3841757068130151e-01 -1.8716762735429135e-01
      -1.3061430008913154e-02 1.7446573939903745e-01
      1.0434923644193085e-01 1.4028192077582771e-01
      3.6971789040274538e-03 -1.6609180478572537e-02
      1.6443152629880572e-01 7.4846757532908620e-02
      3.8295889059498441e-02 4.1215657956372997e-02
      4.3978949100841151e-03 4.3565912341860646e-03
      -1.6799395459039665e-01 -4.0303474601968779e-02
      -2.4863068062263325e-02 -6.6655072704249529e-02
      3.9563819853163498e-02 6.6555574736391288e-02
      4.7266165643346670e-03 -1.3106456310146158e-01
      -8.9140712885385581e-02 9.6869400826568620e-03
      1.1635300126429925e-01 -2.8739419707987192e-02
      1.8414128314966579e-02 -3.7115292975089961e-02
      1.5925951901232924e-01 5.6132664012506078e-02
      1.1589679204389482e-01 -1.3153823226631758e-01
      4.2733542454610078e-02 5.5658164111555330e-02
      -4.0051461477689447e-02 5.4439012667734127e-02
      -3.0312774275500342e-03 -5.5813154039577713e-02
      -6.2089188850186862e-02 -4.5917229061440620e-02
      -1.2528052621863735e-02 1.1551764003426555e-02
      2.8389759894911125e-02 2.2151669049538979e-02
      1.1028799439895220e-01 2.1237659276095078e-01
      -2.0495990421540298e-02 -5.3239636000429594e-02
      -2.4865869204699181e-01 -7.4344726818191140e-02
      1.7832724769914410e-01 -5.1168063741957828e-02
      -3.3895769981642503e-02 1.3508131012113300e-01
      -9.1989244683643639e-02 -1.0205396187248073e-01
      2.4023720737731312e-02 2.1678710927206787e-01
      -7.8901957592854607e-02 1.6686777761592197e-01
      -2.3579299023532414e-02 4.8164726739108973e-02
      -4.1217001439276944e-02 -1.2224944671574153e-01
      -5.5376765306777841e-02 -1.4129090492226751e-01
      3.7624795665920133e-03 1.1314582921105344e-01
      3.1038520095098959e-01 3.9276162618357389e-02
      6.6258009562256248e-02 -5.9788655893660919e-02
      -3.9707302729637829e-02 -7.8718949645579142e-02
